\data\
ngram 1=5701
ngram 2=42688
ngram 3=77164

\1-grams:
-4.6141644	<unk>	0
0	<s>	-1.0256046
-1.4434925	</s>	0
-1.6214955	uh	-0.4668516
-2.827575	then	-0.2533457
-2.8141062	maybe	-0.27240273
-2.0580225	on	-0.55545336
-1.8150643	the	-0.42987987
-3.5698454	strategic	-0.22589129
-3.8178124	partnerships	-0.17854473
-2.3050084	i	-0.56414694
-3.6528697	mean	-0.135521
-4.4631143	recapping	-0.11853298
-2.4527874	two	-0.48908603
-3.5001743	thousand	-0.1863425
-1.6181042	and	-0.45916823
-2.7700055	twenty	-0.44405702
-2.4248478	one	-0.4553682
-3.0680878	obviously	-0.2091498
-2.9536695	those	-0.18730699
-2.6196086	have	-0.32033566
-3.1910725	been	-0.19616832
-3.5001743	closed	-0.15410386
-4.233459	signed	-0.11853298
-3.3404112	towards	-0.34199733
-3.3404112	end	-0.22472255
-1.8013278	of	-0.48421994
-4.087018	summer	-0.17408653
-1.7199516	in	-0.62231594
-4.3265476	past	-0.11853298
-3.2979944	twelve	-0.3146552
-3.5336142	months	-0.25375035
-3.0801544	number	-0.38313806
-3.1910725	enterprise	-0.2445898
-3.001981	customers	-0.3687969
-3.132082	grew	-0.23978184
-2.328205	by	-0.37781337
-3.0680878	forty	-0.4339106
-2.9185514	four	-0.396161
-1.7781347	to	-0.48934913
-2.628167	now	-0.290519
-2.982007	seven	-0.36598894
-3.5336142	hundred	-0.35772392
-3.0925658	particularly	-0.28398025
-4.087018	fourth	-0.19135772
-2.9629116	quarter	-0.32282937
-3.1755567	line	-0.22818275
-2.1716776	with	-0.41816124
-4.087018	usual	-0.11853298
-4.233459	seasonality	-0.11853298
-1.9843987	for	-0.49780533
-3.8904395	software	-0.11853294
-3.469126	companies	-0.15415262
-2.0626988	we	-0.5866669
-2.8141062	were	-0.2129111
-3.5698454	able	-0.47160375
-3.318685	make	-0.25922865
-3.132082	further	-0.16690595
-3.0229182	strong	-0.22613265
-3.5698454	gains	-0.22048922
-3.3874238	almost	-0.17854473
-3.5698454	double	-0.39383647
-2.2968712	our	-0.2858726
-2.5016038	growth	-0.49666572
-3.6528697	average	-0.14265698
-3.1605763	yeah	-0.24312072
-3.4129872	think	-0.23116623
-3.0680878	pretty	-0.37945372
-3.1605763	much	-0.23736642
-4.3265476	unchanged	-0.11853298
-2.9446204	would	-0.34001133
-3.0801544	say	-0.28264937
-2.156828	as	-0.5720468
-2.9918792	had	-0.30622354
-3.701208	discussed	-0.13841179
-2.0148885	um	-0.40523085
-2.9629116	covid	-0.28939313
-4.087018	wave	-0.17555189
-2.5989227	has	-0.37149948
-2.8075252	really	-0.20157172
-3.7556086	brought	-0.17408653
-2.0856256	a	-0.3759806
-2.9185514	new	-0.16578676
-4.087018	competitors	-0.17555189
-4.3265476	winning	-0.11853298
-3.7556086	trying	-0.6074908
-3.2412512	get	-0.23564999
-3.701208	subscribers	-0.16883402
-2.2297788	at	-0.52008045
-3.2782447	lower	-0.18431322
-3.9777002	converted	-0.11853298
-2.902003	quite	-0.28879294
-3.8178124	few	-0.16949019
-3.0801544	them	-0.25520673
-4.4631143	aftermath	-0.11853298
-2.9357557	that's	-0.34177768
-3.4401503	fully	-0.14295563
-4.4631143	authorities	-0.11853298
-4.4631143	granted	-0.11853298
-3.6093764	shareholders	-0.14045063
-4.4631143	agm	-0.11853298
-3.4129872	nineteen	-0.19280851
-4.3265476	addition	-0.11853298
-3.0123234	increased	-0.23577021
-3.0680878	net	-0.32944918
-4.233459	retention	-0.17555189
-3.8178124	rates	-0.15760577
-3.2238727	significantly	-0.3458759
-2.8558347	five	-0.4008043
-3.1185064	after	-0.2775932
-4.3265476	notable	-0.11853298
-4.3265476	dip	-0.17555189
-3.0563474	first	-0.29257375
-3.3404112	half	-0.25419176
-1.8403771	that	-0.58243114
-3.2071629	rate	-0.29201895
-2.6833935	around	-0.31930858
-3.6093764	mid	-0.2689835
-4.4631143	90s	-0.11853298
-2.6641936	just	-0.3402246
-2.794655	three	-0.37440872
-2.6112156	very	-0.3929449
-3.7556086	quick	-0.20195095
-3.7556086	ones	-0.16069508
-3.8904395	hopefully	-0.14610738
-2.9101985	can	-0.29597777
-2.8783057	do	-0.3426307
-3.4129872	many	-0.17925394
-3.3632817	things	-0.2064233
-2.4983866	there	-0.603778
-2.8075252	last	-0.4414246
-2.752395	year	-0.37268043
-3.259354	did	-0.23611382
-3.1460955	million	-0.37234074
-3.5336142	incremental	-0.14443597
-3.3404112	billings	-0.2741148
-2.688329	business	-0.39746755
-3.2979944	roughly	-0.16012453
-3.259354	probably	-0.14042108
-3.3874238	percentage	-0.6592898
-3.4129872	points	-0.21706723
-4.4631143	guess	-0.11853298
-2.9270685	before	-0.3347576
-3.259354	take	-0.2990016
-3.701208	closer	-0.42664728
-2.9918792	look	-0.40861928
-2.982007	both	-0.26660138
-3.5001743	smb	-0.23238243
-4.4631143	separately	-0.11853298
-3.8904395	detail	-0.18554342
-2.9357557	even	-0.2534795
-3.1053424	significant	-0.20960507
-2.9629116	impact	-0.43974015
-3.701208	marketing	-0.15019345
-3.1755567	brand	-0.1974786
-3.4129872	investments	-0.22732665
-3.9777002	retained	-0.11853298
-3.1910725	margins	-0.2583627
-4.3265476	comfortably	-0.11853298
-3.6528697	range	-0.22968462
-2.343639	or	-0.28380924
-2.5830555	if	-0.6608467
-3.259354	expect	-0.25131953
-4.087018	equal	-0.17555189
-4.4631143	weighting	-0.11853298
-4.3265476	increment	-0.11853298
-2.8939593	good	-0.25808725
-4.087018	rule	-0.25530827
-4.4631143	thumb	-0.11853298
-4.233459	whole	-0.11853298
-3.9777002	buyback	-0.20123142
-3.469126	program	-0.18447712
-2.6153917	will	-0.35279003
-2.886062	be	-0.2324815
-4.4631143	carried	-0.11853298
-2.8075252	out	-0.36358532
-4.4631143	accordance	-0.11853298
-4.3265476	eu	-0.11853298
-3.9777002	regulations	-0.16353351
-3.0229182	other	-0.20089357
-4.3265476	applicable	-0.11853298
-4.4631143	rules	-0.11853298
-2.4644868	so	-0.35820755
-4.4631143	forth	-0.11853298
-3.5698454	solution	-0.13407478
-4.233459	nsf	-0.19635262
-2.0169992	is	-0.50305855
-3.001981	already	-0.16243371
-3.3632817	operational	-0.16171372
-2.204619	but	-0.50187176
-3.6528697	current	-0.13394262
-3.9777002	planning	-0.23271081
-3.3404112	most	-0.23689245
-3.6528697	likely	-0.11853294
-4.4631143	summarization	-0.11853298
-2.9185514	again	-0.24463926
-3.3632817	second	-0.23130637
-4.233459	selected	-0.11853298
-3.2782447	markets	-0.31891742
-3.2782447	let's	-0.30104506
-3.1460955	see	-0.30846584
-2.5715241	what	-0.4871136
-3.3632817	contribution	-0.28935584
-3.9777002	asp	-0.11853298
-4.3265476	counted	-0.11853298
-3.1755567	eight	-0.33599195
-3.6093764	euro	-0.16925842
-3.318685	especially	-0.312734
-3.8178124	becoming	-0.30050218
-3.701208	increasingly	-0.17408653
-3.2979944	important	-0.20502938
-3.3874238	start	-0.28945157
-2.729973	an	-0.25982118
-3.3874238	update	-0.2745508
-3.9777002	followed	-0.35221827
-3.7556086	stefan	-0.16883402
-3.1910725	who	-0.23259072
-3.8904395	present	-0.11853298
-3.9777002	financials	-0.22905593
-3.132082	no	-0.16586062
-4.087018	professional	-0.17555189
-3.6528697	services	-0.13672
-2.6689146	it's	-0.33074352
-3.8178124	land	-0.22905593
-3.6093764	expense	-0.11853298
-3.4401503	taking	-0.2177452
-4.233459	converting	-0.11853298
-2.688329	into	-0.352111
-3.5698454	larger	-0.15272723
-3.6528697	big	-0.14497009
-3.701208	driver	-0.2384197
-2.8141062	well	-0.27100635
-3.469126	continues	-0.5223509
-4.3265476	upsell	-0.11853298
-4.3265476	install	-0.24120474
-3.2979944	base	-0.23647156
-2.5016038	more	-0.29363173
-3.0801544	use	-0.36047328
-4.087018	cases	-0.11853298
-4.4631143	embedded	-0.11853298
-2.9918792	products	-0.36201715
-3.7556086	cross	-0.32971612
-3.6528697	selling	-0.16663909
-3.5698454	activities	-0.2717242
-3.8904395	scale	-0.28704786
-2.758186	going	-0.61234033
-3.2238727	revenue	-0.24692306
-3.5336142	great	-0.17232856
-3.1460955	thank	-0.7479839
-2.204619	you	-0.4788019
-4.4631143	hans	-0.11853298
-3.7556086	quickly	-0.11853298
-2.8706853	cost	-0.29964024
-3.1910725	may	-0.22823672
-3.5698454	hand	-0.22074537
-2.6689146	over	-0.47025102
-4.4631143	robert	-0.11853298
-2.2384999	from	-0.38109747
-3.6528697	investor	-0.23953952
-4.087018	relations	-0.18155827
-3.5001743	lead	-0.31724954
-2.8706853	through	-0.31573096
-2.3303766	this	-0.36482933
-3.6528697	conference	-0.23774154
-2.688329	your	-0.23720355
-3.6528697	open	-0.19749995
-3.9777002	apac	-0.11853298
-2.538661	was	-0.28482947
-3.3632817	always	-0.17958006
-3.3404112	difficult	-0.2791583
-3.8178124	find	-0.11853298
-3.0801544	high	-0.23871413
-4.4631143	caliber	-0.11853298
-3.1605763	people	-0.22083627
-4.087018	geographical	-0.11853298
-2.9446204	performance	-0.33665332
-3.701208	slide	-0.17270963
-3.469126	what's	-0.2647135
-3.0925658	my	-0.25312206
-3.3874238	perspective	-0.18429622
-3.318685	pipeline	-0.2413925
-3.9777002	built	-0.11853298
-3.2979944	together	-0.44316968
-3.2979944	key	-0.16101903
-3.8904395	partners	-0.18434481
-2.7640555	like	-0.29973885
-3.8178124	sap	-0.14295563
-3.9777002	google	-0.15019345
-4.4631143	likes	-0.11853298
-3.3404112	increasing	-0.15597345
-2.6785133	all	-0.41363007
-3.259354	made	-0.20377636
-3.2071629	comment	-0.38070598
-3.0563474	sort	-1.4151646
-3.318685	q4	-0.2051871
-2.9270685	being	-0.23237517
-4.233459	showtime	-0.11853298
-2.7138848	sales	-0.37590533
-3.9777002	force	-0.11853298
-3.2412512	having	-0.22023004
-4.4631143	rebuilt	-0.11853298
-4.087018	yearly	-0.17555189
-3.1460955	basis	-0.3375948
-3.3874238	yes	-0.25519654
-4.4631143	letting	-0.11853298
-3.318685	me	-0.20222299
-2.4442153	are	-0.29151252
-3.4401503	saying	-0.22518897
-4.3265476	contain	-0.11853298
-4.4631143	blocking	-0.11853298
-2.3481512	it	-0.40142006
-3.3874238	long	-0.4391334
-3.701208	term	-0.15073991
-3.3632817	future	-0.18150444
-3.6093764	know	-0.17638835
-3.3632817	below	-0.21236889
-3.1755567	due	-0.949526
-2.9270685	effect	-0.40352893
-4.3265476	discontinued	-0.11853298
-4.4631143	perpetual	-0.11853298
-3.9777002	license	-0.11853298
-4.3265476	model	-0.11853298
-3.8904395	firstly	-0.14295563
-3.7556086	want	-0.36597204
-2.3811228	which	-0.5494977
-4.4631143	jumped	-0.11853298
-3.701208	sometimes	-0.11853298
-4.087018	integration	-0.19135772
-2.5830555	some	-0.32356164
-3.8178124	needed	-0.18155827
-4.4631143	tapping	-0.11853298
-4.087018	traditional	-0.11853298
-4.087018	partner	-0.11853298
-3.9777002	network	-0.16353351
-3.469126	doing	-0.19811174
-4.4631143	implementation	-0.11853298
-4.3265476	abb	-0.11853298
-4.087018	provides	-0.11853298
-3.9777002	remote	-0.16353351
-3.4129872	support	-0.20671044
-3.1185064	their	-0.14678915
-3.7556086	clients	-0.17408653
-4.233459	heavily	-0.11853298
-3.9777002	connected	-0.22429007
-3.8178124	devices	-0.11853294
-3.0229182	such	-0.37157756
-4.4631143	robots	-0.11853298
-3.6528697	industrial	-0.13841179
-4.233459	machines	-0.19635262
-4.087018	we'd	-0.17555189
-3.4401503	step	-0.24582036
-2.8783057	back	-0.47837773
-2.6833935	here	-0.3689658
-4.3265476	lingering	-0.11853298
-3.0229182	question	-0.42060396
-2.5493414	about	-0.4255427
-3.2979944	capital	-0.1994914
-3.5698454	structure	-0.21415134
-3.9777002	wanted	-0.43139952
-3.701208	respond	-0.42662615
-2.9918792	today	-0.32222903
-3.7556086	ladies	-0.73847103
-4.3265476	gentlemen	-0.14610738
-4.4631143	attendance	-0.11853298
-3.3404112	move	-0.26641828
-3.1605763	next	-0.34049436
-3.8904395	pleased	-0.3880486
-3.7556086	teamviewer	-0.14295563
-3.5001743	full	-0.29986203
-3.2782447	results	-0.29886094
-2.6029818	also	-0.2564872
-2.6325102	not	-0.3138931
-3.3874238	focus	-0.37911928
-2.8706853	us	-0.28952673
-3.7556086	finally	-0.16353351
-2.9357557	right	-0.38208818
-4.3265476	sports	-0.11853298
-3.8178124	partnership	-0.19285016
-3.8904395	develop	-0.13529362
-4.233459	joint	-0.19635262
-3.5336142	technology	-0.16353351
-4.4631143	action	-0.11853298
-4.087018	break	-0.17555189
-2.9357557	down	-0.33785775
-3.8904395	active	-0.19135772
-4.087018	device	-0.22429007
-4.233459	types	-0.19635262
-2.841475	how	-0.46522242
-4.4631143	evolved	-0.11853298
-3.044916	time	-0.29631883
-4.3265476	iot	-0.11853298
-3.469126	become	-0.17555189
-4.087018	bigger	-0.11853298
-2.9723544	part	-0.6495473
-2.8783057	these	-0.20054561
-3.3874238	does	-0.22054246
-4.233459	imply	-0.11853298
-3.2979944	free	-0.3407164
-4.233459	creation	-0.11853298
-2.8939593	actually	-0.20103817
-4.3265476	struck	-0.11853298
-4.087018	bit	-0.16062
-3.2238727	sixty	-0.29886094
-4.4631143	repeatable	-0.11853298
-3.9777002	anymore	-0.16353351
-4.087018	imagine	-0.15019345
-3.0801544	higher	-0.24294971
-3.7556086	spend	-0.11853298
-3.8904395	reach	-0.13302119
-3.2071629	numbers	-0.2816352
-3.7556086	exposure	-0.48668474
-3.701208	delivering	-0.16353351
-4.3265476	teens	-0.11853298
-3.7556086	oliver	-0.14295563
-3.1605763	clearly	-0.19431888
-3.701208	attractive	-0.14610738
-2.8939593	margin	-0.25673252
-3.1910725	overall	-0.15791078
-3.2412512	despite	-0.25324777
-4.087018	secondly	-0.14610738
-4.3265476	upper	-0.11853298
-4.4631143	corner	-0.11853298
-4.233459	steadily	-0.11853298
-2.902003	increase	-0.3775792
-3.2412512	development	-0.25518414
-3.9777002	combined	-0.2047774
-3.8178124	highly	-0.11853298
-3.001981	cash	-0.31682372
-3.6528697	profile	-0.19970298
-4.3265476	opens	-0.11853298
-2.6736875	up	-0.36827007
-4.4631143	avenues	-0.11853298
-3.259354	value	-0.16347964
-3.6528697	generation	-0.14800942
-4.4631143	surprising	-0.11853298
-3.3404112	need	-0.4073674
-3.8178124	bear	-0.22141269
-4.087018	mind	-0.14045063
-3.5698454	eighty	-0.23310871
-3.6528697	includes	-0.15622413
-2.9270685	during	-0.63467294
-4.233459	severe	-0.11853298
-3.8904395	lockdown	-0.14610738
-3.5001743	restrictions	-0.19466782
-3.2238727	i'm	-0.3212222
-4.3265476	curious	-0.11853298
-3.0680878	kind	-1.22145
-3.7556086	driving	-0.14045063
-4.4631143	consistency	-0.11853298
-3.5698454	build	-0.16353346
-3.0925658	coming	-0.36779818
-3.469126	strongly	-0.1747755
-4.3265476	convinced	-0.24120474
-3.9777002	track	-0.11853298
-4.3265476	pushing	-0.11853298
-3.5336142	ahead	-0.2719182
-3.7556086	p	-0.20195095
-4.087018	l	-0.14890336
-3.6093764	absolutely	-0.1898457
-3.8178124	hi	-0.15366445
-4.4631143	jim	-0.11853298
-3.8904395	happened	-0.16883402
-3.0337777	ten	-0.2788195
-3.8178124	days	-0.20195095
-3.8178124	ago	-0.18386097
-4.233459	room	-0.11853298
-4.4631143	americas	-0.11853298
-3.3404112	team	-0.23037256
-3.9777002	consistent	-0.11853298
-3.8178124	bad	-0.14295563
-3.701208	debt	-0.16133854
-3.4401503	expenses	-0.1779445
-3.469126	came	-0.37833148
-3.0123234	financial	-0.21722509
-3.1910725	position	-0.3180165
-4.087018	helps	-0.11853298
-4.3265476	enables	-0.24120474
-4.233459	create	-0.17555189
-3.3632817	basically	-0.17753844
-2.841475	level	-0.4625995
-4.4631143	overlay	-0.11853298
-3.6528697	spending	-0.11853298
-3.1605763	environment	-0.26366562
-3.701208	everyone	-0.2891011
-3.7556086	hear	-0.14295563
-3.8904395	robust	-0.15019345
-3.701208	tax	-0.19416028
-3.5001743	they're	-0.15019345
-3.3404112	portfolio	-0.20085421
-3.9777002	cannot	-0.13672
-4.087018	strip	-0.17555189
-4.3265476	sponsoring	-0.11853298
-4.4631143	installations	-0.11853298
-4.4631143	albeit	-0.11853298
-3.1053424	only	-0.1543601
-3.2979944	slightly	-0.19396782
-3.8178124	couple	-0.29902527
-3.132082	you're	-0.23471133
-3.6528697	using	-0.15100561
-4.3265476	speaker	-0.11853298
-3.9777002	equipment	-0.15570207
-2.9536695	please	-0.3785747
-4.4631143	lift	-0.11853298
-4.3265476	handset	-0.24120474
-3.469126	making	-0.18064372
-4.3265476	selection	-0.11853298
-3.3404112	plan	-0.3493176
-3.8904395	little	-0.13841179
-4.4631143	housekeeping	-0.11853298
-4.3265476	exercise	-0.11853298
-3.2071629	low	-0.2549248
-3.7556086	subscriber	-0.30050218
-3.8178124	billing	-0.11853298
-3.4401503	went	-0.35901073
-3.2979944	within	-0.28276604
-3.9777002	remax	-0.16353351
-4.3265476	introduced	-0.11853298
-4.3265476	task	-0.11853298
-4.087018	upgrade	-0.11853298
-4.3265476	website	-0.16353351
-3.318685	digital	-0.21617588
-3.7556086	momentum	-0.14295563
-4.3265476	builds	-0.11853298
-3.8178124	final	-0.42662615
-4.233459	clarification	-0.11853298
-3.259354	let	-0.5755145
-3.5001743	total	-0.17094257
-3.3874238	group	-0.1981305
-3.2238727	questions	-0.3628325
-3.8904395	moment	-0.1836894
-3.4129872	follow	-0.32060668
-4.4631143	ups	-0.11853298
-4.4631143	digging	-0.11853298
-3.5336142	comments	-0.23993078
-4.3265476	subs	-0.11853298
-3.6093764	saw	-0.1655136
-4.3265476	drop	-0.11853298
-3.2979944	q3	-0.19522841
-3.8904395	means	-0.18338391
-4.4631143	consult	-0.11853298
-4.087018	personal	-0.11853298
-3.7556086	banking	-0.15342067
-4.4631143	advisor	-0.11853298
-3.8178124	via	-0.14610738
-4.3265476	video	-0.11853298
-3.3404112	call	-0.266824
-4.4631143	client	-0.11853298
-3.4401503	put	-0.22519384
-3.3874238	online	-0.1951267
-4.233459	forms	-0.11853298
-4.4631143	upload	-0.11853298
-4.4631143	documents	-0.11853298
-3.6528697	talked	-0.69464093
-4.233459	stabilization	-0.19635262
-4.233459	gradual	-0.11853298
-3.2071629	improvement	-0.35756773
-3.6528697	remember	-0.26475435
-4.4631143	bookend	-0.11853298
-2.982007	than	-0.32106632
-3.2782447	expected	-0.24582036
-3.8178124	frankly	-0.14610738
-4.3265476	thirdly	-0.17555189
-3.4401503	improved	-0.12792684
-4.233459	churn	-0.3125023
-3.2412512	fourteen	-0.22930731
-2.8939593	point	-0.54038996
-2.8010426	compared	-1.2789041
-3.8178124	portion	-0.37041807
-4.087018	you'd	-0.16353351
-3.9777002	contribute	-0.19135772
-3.701208	either	-0.11853294
-3.5698454	service	-0.15272723
-3.6093764	similar	-0.20672153
-3.8904395	real	-0.11853298
-4.3265476	branches	-0.11853298
-3.1460955	said	-0.30486578
-3.132082	investment	-0.33130428
-4.4631143	overdelivered	-0.11853298
-3.5001743	against	-0.22968462
-3.0229182	guidance	-0.33209273
-3.9777002	gave	-0.14610738
-3.8178124	ourselves	-0.14610738
-2.9723544	six	-0.36001003
-3.7556086	conversion	-0.18112674
-3.9777002	re	-0.11853298
-4.4631143	cutting	-0.11853298
-4.087018	regional	-0.11853298
-3.7556086	teams	-0.1560592
-4.4631143	underneath	-0.11853298
-3.5698454	nothing	-0.17954691
-3.9777002	regards	-0.18434481
-4.3265476	freeze	-0.11853298
-4.087018	implied	-0.11853298
-3.9777002	opex	-0.11853298
-4.3265476	suggests	-0.11853298
-3.4129872	done	-0.20195095
-3.3874238	anything	-0.16586062
-3.6093764	specific	-0.15272723
-4.233459	representing	-0.11853298
-3.8178124	regions	-0.17408653
-3.469126	close	-0.30291367
-3.9777002	deals	-0.16353351
-4.4631143	dimensions	-0.11853298
-4.233459	revised	-0.11853298
-4.087018	allocation	-0.16883402
-3.5698454	announced	-0.20572044
-4.233459	morning	-0.15234226
-3.001981	share	-0.23726828
-4.3265476	maximum	-0.24120474
-3.701208	shares	-0.11853294
-4.233459	equivalent	-0.11853298
-3.6093764	nearly	-0.15272723
-3.8178124	outstanding	-0.14045063
-2.8706853	price	-0.23983206
-3.469126	stable	-0.23355277
-2.9723544	there's	-0.3658118
-4.4631143	staff	-0.11853298
-4.087018	parts	-0.2047774
-4.087018	organization	-0.11853298
-4.4631143	connect	-0.11853298
-3.318685	way	-0.21156234
-3.0680878	could	-0.27980965
-3.7556086	perhaps	-0.16883402
-3.5001743	comes	-0.30840626
-4.233459	ar	-0.11853298
-3.3404112	customer	-0.2246179
-3.8904395	count	-0.15570207
-3.8178124	evolution	-0.14295563
-3.701208	contributed	-0.23271081
-3.2782447	mentioned	-0.2231776
-3.259354	give	-0.38469636
-3.8178124	detailed	-0.14295563
-4.4631143	insight	-0.11853298
-4.4631143	dynamically	-0.11853298
-3.259354	growing	-0.18529768
-3.7556086	account	-0.16820025
-3.8904395	expand	-0.15570207
-4.3265476	complex	-0.11853298
-3.8904395	connectivity	-0.15570207
-4.4631143	suite	-0.11853298
-4.4631143	handler	-0.11853298
-2.575334	because	-0.4846716
-4.233459	delivers	-0.11853298
-4.3265476	secure	-0.11853298
-3.8904395	country	-0.13672
-4.233459	internally	-0.11853298
-4.3265476	externally	-0.11853298
-4.233459	known	-0.11853298
-3.9777002	essentially	-0.16353351
-4.4631143	fled	-0.11853298
-2.8010426	we're	-0.3592661
-3.6093764	seeing	-0.22750175
-3.4129872	seen	-0.19733469
-3.8178124	healthy	-0.11853298
-3.9777002	nice	-0.13672
-3.1755567	driven	-0.724994
-3.6093764	primarily	-0.17954691
-3.318685	volume	-0.22425449
-3.8904395	fees	-0.11853298
-3.7556086	existing	-0.13841179
-4.3265476	furthermore	-0.11853298
-3.4129872	another	-0.16586062
-3.6528697	goal	-0.16663909
-4.4631143	standardize	-0.11853298
-3.6093764	global	-0.14295563
-3.0123234	across	-0.4048512
-3.9777002	divisions	-0.14295563
-3.5336142	run	-0.17408653
-4.3265476	user	-0.11853298
-3.9777002	monetization	-0.11853298
-3.6093764	believe	-0.22909702
-3.9777002	won	-0.14870316
-4.3265476	lately	-0.11853298
-3.4129872	might	-0.2018968
-3.6093764	turn	-0.20307933
-4.4631143	stickier	-0.11853298
-3.2979944	quarters	-0.19717668
-2.6325102	where	-0.47137332
-4.087018	biased	-0.25530827
-4.233459	tend	-0.3125023
-3.2412512	later	-0.3539947
-3.2238727	thanks	-0.3584659
-3.469126	core	-0.15183872
-3.0925658	product	-0.26627624
-4.3265476	allocated	-0.11853298
-4.3265476	resources	-0.11853298
-3.6093764	area	-0.21462373
-3.5001743	away	-0.33897817
-3.4129872	non	-0.20088789
-3.701208	focused	-0.34625968
-4.233459	terms	-0.11853298
-3.4401503	why	-0.21536572
-4.3265476	cancel	-0.11853298
-3.6528697	keep	-0.22308019
-3.2782447	m	-0.6392634
-3.4129872	currency	-0.1836894
-3.9777002	joined	-0.16353351
-4.4631143	timeframe	-0.11853298
-3.9777002	nicely	-0.11853298
-4.233459	brief	-0.11853298
-3.9777002	example	-0.14295563
-3.7556086	case	-0.20550263
-3.9777002	begin	-0.2047774
-4.3265476	enterprises	-0.11853298
-3.8904395	goes	-0.18434481
-4.4631143	ipo	-0.11853298
-3.318685	company	-0.236826
-3.5001743	leverage	-0.16345969
-3.7556086	times	-0.13129137
-3.2238727	ebitda	-0.24057294
-3.8904395	smaller	-0.11853298
-3.0925658	looking	-0.4881705
-3.6528697	thinking	-0.42544094
-4.233459	trends	-0.15570207
-4.3265476	progressing	-0.11853298
-4.4631143	fy	-0.11853298
-4.233459	lever	-0.11853298
-2.8141062	they	-0.32922035
-3.8904395	providing	-0.11853298
-4.4631143	unrivaled	-0.11853298
-3.8904395	strengthened	-0.11853298
-4.3265476	diversified	-0.11853298
-3.4401503	solutions	-0.1454221
-3.9777002	same	-0.12468313
-3.5698454	footprint	-0.2853181
-4.233459	united	-0.3125023
-4.233459	states	-0.14610738
-4.3265476	depth	-0.11853298
-3.1910725	go	-0.3177147
-4.233459	integrated	-0.11853298
-4.233459	ub	-0.19635262
-4.087018	upskill	-0.25530827
-4.233459	viskupic	-0.11853298
-3.3632817	management	-0.15681225
-3.5001743	r	-0.39383647
-4.233459	d	-0.16058014
-2.7640555	market	-0.3239419
-4.3265476	guides	-0.11853298
-3.4129872	target	-0.22519384
-4.233459	diluted	-0.11853298
-4.233459	doubling	-0.11853298
-3.7556086	frontline	-0.20195095
-4.087018	workers	-0.15570207
-4.4631143	technicians	-0.11853298
-3.8178124	whatever	-0.11853298
-3.001981	nine	-0.4255466
-3.1605763	regarding	-0.33563966
-4.4631143	mercedes	-0.11853298
-3.8178124	views	-0.18434481
-4.4631143	featuring	-0.11853298
-4.233459	logo	-0.11853298
-3.6093764	channels	-0.2072533
-4.4631143	tv	-0.11853298
-4.233459	audience	-0.19635262
-3.4129872	billion	-0.35316342
-3.9777002	formula	-0.16353351
-4.4631143	viewers	-0.11853298
-3.5001743	meaningful	-0.11853298
-4.4631143	microsoft	-0.11853298
-3.9777002	mobile	-0.11853298
-4.3265476	android	-0.11853298
-4.3265476	versions	-0.24120474
-4.3265476	biggest	-0.11853298
-3.6093764	reason	-0.25580385
-3.7556086	potential	-0.14443597
-4.087018	adjustment	-0.17555189
-3.701208	running	-0.11853298
-4.3265476	stabilize	-0.11853298
-3.9777002	ecosystem	-0.11853298
-4.4631143	ideally	-0.11853298
-4.4631143	reignite	-0.11853298
-4.233459	recovered	-0.11853298
-4.3265476	substan	-0.11853298
-3.3404112	you've	-0.18835217
-3.701208	constant	-0.25245067
-4.087018	currencies	-0.15019345
-3.4129872	sorry	-0.29732844
-3.2071629	seventy	-0.2693004
-4.4631143	measured	-0.11853298
-4.4631143	attr	-0.11853298
-4.087018	lastly	-0.13407478
-2.9357557	we've	-0.29393923
-4.087018	expertise	-0.17555189
-4.233459	senior	-0.11853298
-3.9777002	implemented	-0.16353351
-3.6093764	major	-0.11853298
-4.233459	reductions	-0.11853298
-3.2071629	better	-0.22992189
-3.469126	balance	-0.26281607
-4.4631143	scores	-0.11853298
-3.7556086	respectively	-0.26475435
-3.3632817	trend	-0.30605438
-4.3265476	cloud	-0.11853298
-4.087018	among	-0.17555189
-3.8178124	highlights	-0.23172644
-4.3265476	underlining	-0.11853298
-4.3265476	proposition	-0.11853298
-4.3265476	firepower	-0.11853298
-3.701208	flexibility	-0.20054454
-4.3265476	pursue	-0.24120474
-4.3265476	immediately	-0.11853298
-4.3265476	horizon	-0.24120474
-3.2071629	negative	-0.24829526
-4.4631143	sizing	-0.11853298
-4.4631143	downsizing	-0.11853298
-3.8904395	game	-0.11853298
-4.4631143	changer	-0.11853298
-3.5336142	food	-0.2172098
-3.6093764	industry	-0.20788722
-3.1755567	its	-0.13370694
-4.233459	strict	-0.11853298
-4.3265476	hygiene	-0.11853298
-4.4631143	somebody	-0.11853298
-4.4631143	extending	-0.11853298
-4.087018	erp	-0.17555189
-4.4631143	warehouse	-0.11853298
-4.4631143	worker	-0.11853298
-3.3404112	come	-0.23498578
-3.8904395	play	-0.18155827
-4.4631143	flatter	-0.11853298
-3.5698454	set	-0.25964785
-4.3265476	comps	-0.11853298
-3.7556086	previously	-0.11853298
-2.9185514	still	-0.22982675
-4.3265476	residual	-0.11853298
-4.233459	strength	-0.17555189
-3.318685	q1	-0.20620789
-3.5001743	period	-0.18429622
-4.087018	t	-0.11853298
-3.2782447	years	-0.29571468
-4.3265476	limitation	-0.11853298
-4.4631143	mega	-0.11853298
-4.087018	anyway	-0.11853298
-3.1755567	different	-0.22362313
-3.469126	measures	-0.28645396
-4.087018	wouldn't	-0.14045063
-3.8904395	enough	-0.15019345
-3.3404112	forward	-0.253548
-4.3265476	slower	-0.11853298
-4.3265476	hoping	-0.11853298
-3.8178124	color	-0.27203143
-3.6093764	reached	-0.15342067
-3.8904395	decision	-0.11853298
-3.8904395	pro	-0.15570207
-3.0123234	should	-0.3923367
-3.4129872	view	-0.19025384
-3.9777002	effectively	-0.16353351
-3.5001743	return	-0.2410482
-4.233459	buybacks	-0.16353351
-2.9629116	versus	-0.311695
-4.233459	company's	-0.11853298
-4.3265476	reinvestment	-0.24120474
-3.3874238	opportunities	-0.21861342
-4.087018	maturity	-0.11853298
-3.5001743	feel	-0.2449775
-4.087018	comfortable	-0.22429007
-3.0337777	thirty	-0.37649193
-3.0229182	fifty	-0.38842282
-3.4129872	grow	-0.2076455
-3.6093764	left	-0.15019345
-3.0925658	side	-0.281465
-3.6528697	substantial	-0.17089
-4.3265476	engine	-0.11853298
-3.8904395	roll	-0.11853298
-3.2071629	off	-0.25702593
-4.4631143	ltm	-0.11853298
-3.6528697	decrease	-0.15570207
-4.087018	indicators	-0.11853298
-4.4631143	installs	-0.11853298
-4.233459	monthly	-0.3125023
-3.5698454	behind	-0.23608844
-4.4631143	india	-0.11853298
-4.087018	broader	-0.16353351
-3.3632817	outlook	-0.27003464
-3.318685	'	-0.74496275
-3.701208	annual	-0.15570207
-3.701208	contract	-0.11853298
-4.233459	packet	-0.11853298
-3.3632817	above	-0.26641828
-4.4631143	smallest	-0.11853298
-4.087018	acv	-0.17555189
-3.701208	contracts	-0.11853298
-4.087018	declined	-0.11853298
-3.5698454	eleven	-0.23903342
-3.6528697	paid	-0.13672
-4.3265476	voluntary	-0.11853298
-4.233459	purchases	-0.11853298
-3.701208	initiatives	-0.18112674
-4.3265476	difficulties	-0.11853298
-3.9777002	finding	-0.11853298
-3.3874238	i'll	-0.25499448
-3.5698454	solid	-0.1375283
-4.3265476	sheet	-0.11853298
-3.4129872	pre	-0.3085882
-3.9777002	flow	-0.12993059
-3.1460955	operating	-0.29579338
-3.5336142	impacted	-0.320242
-4.4631143	measurements	-0.11853298
-3.6528697	equity	-0.1592443
-2.7245438	when	-0.5839045
-3.5698454	large	-0.13210134
-4.3265476	logos	-0.11853298
-3.318685	talk	-0.45251024
-4.4631143	depleted	-0.11853298
-4.3265476	organizations	-0.11853298
-3.8904395	topic	-0.11853298
-3.8178124	reality	-0.15272723
-4.4631143	thirds	-0.11853298
-3.9777002	ot	-0.22429007
-3.5698454	third	-0.1971373
-4.233459	scenario	-0.11853298
-4.4631143	rip	-0.11853298
-4.4631143	partnershop	-0.11853298
-4.4631143	ships	-0.11853298
-4.4631143	50s	-0.11853298
-4.233459	productive	-0.11853298
-4.087018	collaboration	-0.17555189
-4.3265476	ford	-0.11853298
-4.3265476	motor	-0.11853298
-3.8904395	commission	-0.15570207
-3.5336142	execution	-0.18172328
-3.701208	however	-0.12935357
-3.0925658	working	-0.36999798
-3.469126	hard	-0.42329907
-4.3265476	address	-0.11853298
-3.5001743	remain	-0.15272723
-3.9777002	committed	-0.35221827
-3.3632817	continue	-0.48987094
-4.233459	path	-0.11853298
-4.3265476	demonstrated	-0.11853298
-4.233459	announcement	-0.17555189
-3.469126	progress	-0.16069508
-3.7556086	makes	-0.21365559
-3.701208	sense	-0.25055602
-4.087018	highlight	-0.15570207
-4.087018	enhanced	-0.17555189
-4.4631143	artificial	-0.11853298
-4.4631143	intelligent	-0.11853298
-3.8178124	capabilities	-0.18155827
-4.4631143	detect	-0.11853298
-4.3265476	wearing	-0.11853298
-3.9777002	changing	-0.16883402
-4.4631143	gloves	-0.11853298
-4.4631143	fruit	-0.11853298
-4.3265476	ui	-0.24120474
-4.4631143	ux	-0.11853298
-4.4631143	forthcoming	-0.11853298
-4.3265476	released	-0.11853298
-3.4129872	early	-0.1592443
-4.087018	shortly	-0.11853298
-3.6528697	investing	-0.24770842
-3.5001743	efforts	-0.27645695
-4.4631143	showcase	-0.11853298
-4.233459	extended	-0.11853298
-4.233459	broaden	-0.11853298
-4.4631143	awareness	-0.11853298
-3.701208	segments	-0.11853298
-4.4631143	corresponds	-0.11853298
-4.4631143	fold	-0.11853298
-3.5698454	seventeen	-0.1579908
-3.9777002	shown	-0.16353351
-3.3404112	thirteen	-0.21395557
-3.7556086	fine	-0.17954691
-4.087018	stage	-0.14295563
-4.4631143	tacking	-0.11853298
-3.8904395	successfully	-0.15019345
-4.233459	max	-0.11853298
-4.233459	word	-0.11853298
-3.2979944	acquisition	-0.22141756
-3.701208	invested	-0.1592443
-4.233459	generally	-0.19635262
-3.701208	speaking	-0.17453687
-4.087018	achieve	-0.11853298
-3.8904395	generate	-0.15272723
-3.3632817	adjusted	-0.37434322
-4.233459	walk	-0.17555189
-3.6528697	details	-0.17954691
-4.3265476	logic	-0.11853298
-3.8904395	complete	-0.11853298
-4.087018	adopted	-0.25530827
-3.2979944	based	-0.42232132
-3.7556086	augmented	-0.42841002
-3.3404112	platform	-0.24616686
-4.4631143	reminder	-0.11853298
-3.9777002	participants	-0.19635262
-4.087018	listen	-0.17555189
-4.4631143	mode	-0.11853298
-3.7556086	somewhat	-0.11853294
-3.7556086	split	-0.16353351
-3.1053424	between	-0.24061714
-3.9777002	topics	-0.11853298
-4.087018	centered	-0.17555189
-3.1910725	manufacturing	-0.24671176
-3.9777002	field	-0.15570207
-4.3265476	engineering	-0.19635262
-3.9777002	logistics	-0.11853298
-4.3265476	ifr	-0.11853298
-3.5336142	revenues	-0.15074702
-4.4631143	stacy	-0.11853298
-4.087018	jp	-0.43744105
-4.233459	morgan	-0.15570207
-3.3874238	clear	-0.17299244
-4.4631143	containment	-0.11853298
-3.8904395	maintain	-0.17555189
-3.1755567	profitability	-0.34036767
-3.5698454	therefore	-0.17304507
-4.4631143	inconsistency	-0.11853298
-4.4631143	pains	-0.11853298
-4.087018	gaining	-0.16353351
-3.8178124	speed	-0.33689603
-3.6093764	small	-0.13302119
-4.233459	ticket	-0.19635262
-4.233459	sizes	-0.17555189
-3.8178124	completed	-0.16883402
-4.3265476	emea	-0.11853298
-3.9777002	region	-0.15570207
-4.087018	expressed	-0.11853298
-4.4631143	ai	-0.11853298
-3.5336142	currently	-0.11853298
-3.8904395	importantly	-0.11853298
-3.701208	competition	-0.1592443
-3.8178124	mostly	-0.11853298
-4.4631143	competing	-0.11853298
-4.4631143	commoditized	-0.11853298
-4.233459	wondering	-0.17963311
-3.9777002	remaining	-0.11853298
-4.3265476	wins	-0.19635262
-3.2979944	leading	-0.263151
-3.8904395	players	-0.11853298
-3.5001743	dynamic	-0.22361352
-4.4631143	founders	-0.11853298
-3.8904395	board	-0.16820025
-3.4129872	getting	-0.16586062
-4.4631143	harder	-0.11853298
-3.5698454	data	-0.15019345
-4.4631143	spoken	-0.11853298
-4.3265476	cmd	-0.11853298
-4.3265476	hence	-0.19635262
-4.4631143	conclusion	-0.11853298
-3.6093764	delivered	-0.17145228
-4.233459	strengthen	-0.19635262
-4.3265476	foundation	-0.11853298
-3.6093764	profitable	-0.22333199
-3.6528697	digitalization	-0.16820025
-4.4631143	applies	-0.11853298
-4.4631143	smbs	-0.11853298
-4.3265476	j	-0.11853298
-4.233459	fit	-0.11853298
-3.2979944	okay	-0.31251332
-3.3874238	plans	-0.2351903
-3.469126	short	-0.4234728
-4.087018	answered	-0.11853298
-3.8904395	speak	-0.11853298
-4.3265476	dial	-0.11853298
-3.7556086	doesn't	-0.17954691
-4.3265476	lot	-0.11853298
-3.5698454	successful	-0.16139059
-3.8904395	balanced	-0.17408653
-3.6093764	i've	-0.2073948
-3.5001743	got	-0.20959294
-3.5001743	thing	-0.2570307
-4.4631143	aligned	-0.11853298
-3.4129872	opportunity	-0.2451575
-4.4631143	patty	-0.11853298
-4.4631143	yan	-0.11853298
-4.087018	june	-0.11853298
-4.087018	monitoring	-0.11853298
-3.8178124	productivity	-0.16353351
-3.5001743	confident	-0.27140757
-3.7556086	place	-0.15183872
-3.8904395	deliver	-0.16693352
-3.8904395	headcount	-0.19635262
-3.4401503	reduction	-0.33820042
-3.6093764	factors	-0.2397612
-3.6093764	euros	-0.22043146
-4.3265476	former	-0.11853298
-3.5001743	remarkable	-0.2099834
-3.701208	reasons	-0.15342067
-4.3265476	gustav	-0.11853298
-4.4631143	intense	-0.11853298
-3.8178124	discussion	-0.17408653
-3.2238727	since	-0.30701756
-4.4631143	ipo'd	-0.11853298
-3.8178124	chart	-0.14045063
-3.9777002	bottom	-0.32971612
-3.6093764	fiscal	-0.46616164
-4.4631143	42k	-0.11853298
-4.4631143	startup	-0.11853298
-3.8178124	acquired	-0.13529362
-4.4631143	glance	-0.11853298
-4.3265476	tried	-0.11853298
-3.6093764	effects	-0.17198245
-4.4631143	deliberations	-0.11853298
-4.087018	arriving	-0.11853298
-4.087018	yourself	-0.11853298
-3.7556086	organically	-0.30050218
-4.3265476	demonstrate	-0.11853298
-3.9777002	confidence	-0.15570207
-4.3265476	commitment	-0.11853298
-3.7556086	shareholder	-0.27748397
-4.087018	allowing	-0.17555189
-4.233459	participate	-0.16353351
-3.5336142	success	-0.1579908
-3.701208	generating	-0.11853298
-3.9777002	combination	-0.2047774
-4.233459	flows	-0.11853298
-4.087018	pointed	-0.35221827
-3.7556086	don't	-0.18986966
-3.6528697	approach	-0.14045063
-4.3265476	talent	-0.11853298
-3.8904395	produced	-0.19135772
-4.3265476	announce	-0.11853298
-3.5698454	once	-0.22773167
-3.8904395	name	-0.17555189
-3.6528697	ask	-0.15234226
-3.469126	process	-0.1850769
-4.233459	list	-0.11853298
-4.3265476	she	-0.11853298
-3.8178124	compare	-0.16353351
-4.233459	users	-0.16353351
-4.3265476	twofold	-0.11853298
-3.9777002	hasn't	-0.3034713
-3.701208	picture	-0.13529362
-4.4631143	clearer	-0.11853298
-3.6093764	started	-0.320242
-4.087018	capitalizing	-0.17555189
-3.4401503	single	-0.39062145
-4.233459	digit	-0.14800942
-3.5698454	each	-0.16693352
-3.9777002	amount	-0.25055602
-4.233459	examples	-0.11853298
-4.4631143	demonstrates	-0.11853298
-4.3265476	breadth	-0.11853298
-4.4631143	ri	-0.11853298
-4.233459	wide	-0.11853298
-4.233459	sectors	-0.11853298
-4.087018	industries	-0.25530827
-3.5336142	lines	-0.16069508
-4.087018	looks	-0.18155827
-3.7556086	increases	-0.1747755
-4.087018	measure	-0.11853298
-4.3265476	kpi	-0.11853298
-4.233459	anytime	-0.19635262
-3.6528697	i'd	-0.32688966
-3.7556086	managed	-0.24934967
-3.9777002	safety	-0.16353351
-4.4631143	adjacent	-0.11853298
-4.087018	fx	-0.11853298
-4.3265476	tailwind	-0.11853298
-3.8178124	employee	-0.11853298
-4.3265476	newer	-0.11853298
-4.233459	convert	-0.11853298
-4.087018	intake	-0.11853298
-4.3265476	engagement	-0.11853298
-3.9777002	engage	-0.22905593
-3.8178124	added	-0.2717242
-3.4401503	add	-0.19736055
-3.8904395	steps	-0.15570207
-4.233459	chain	-0.13672
-3.3404112	businesses	-0.22468099
-4.4631143	apply	-0.11853298
-4.4631143	clubs	-0.11853298
-4.4631143	showcases	-0.11853298
-3.701208	challenges	-0.1592443
-4.3265476	decisions	-0.24120474
-4.4631143	broadening	-0.11853298
-4.233459	status	-0.11853298
-4.233459	conducted	-0.11853298
-4.087018	report	-0.15570207
-3.9777002	levered	-0.35221827
-3.8178124	totally	-0.11853298
-4.3265476	rise	-0.11853298
-3.701208	without	-0.1592443
-4.233459	discussions	-0.11853298
-3.9777002	investors	-0.11853298
-3.7556086	timing	-0.2513268
-4.233459	funds	-0.11853298
-3.6528697	completely	-0.11853298
-3.8178124	decreased	-0.14610738
-3.9777002	reflecting	-0.15570207
-4.4631143	marked	-0.11853298
-3.4129872	several	-0.1592443
-4.233459	strategically	-0.11853298
-4.4631143	foster	-0.11853298
-4.087018	course	-0.1295129
-4.4631143	acknowledge	-0.11853298
-3.701208	deal	-0.20195095
-4.3265476	news	-0.11853298
-4.4631143	eat	-0.11853298
-3.5698454	mix	-0.18332946
-4.233459	push	-0.11853298
-3.3874238	relevant	-0.16860755
-3.8178124	offering	-0.15019345
-3.8178124	happy	-0.35221827
-4.4631143	regroup	-0.11853298
-4.233459	places	-0.11853298
-4.4631143	departments	-0.11853298
-4.087018	globally	-0.11853298
-3.8178124	pay	-0.11853298
-3.1755567	positive	-0.20195095
-3.8178124	developments	-0.11853298
-3.701208	yet	-0.15622413
-4.3265476	lots	-0.24120474
-3.6093764	improve	-0.14800942
-3.2071629	project	-0.19231535
-3.6528697	outside	-0.16353351
-3.5336142	certain	-0.13696977
-3.259354	plus	-0.1712164
-3.3404112	top	-0.4539232
-3.701208	launching	-0.16883402
-4.4631143	unaffected	-0.11853298
-4.233459	rebuild	-0.11853298
-4.3265476	background	-0.11853298
-3.3874238	fifteen	-0.2961423
-4.3265476	disappear	-0.11853298
-3.259354	pricing	-0.15099528
-3.701208	power	-0.16353351
-3.469126	space	-0.26889774
-3.6528697	show	-0.17555189
-4.4631143	hp	-0.11853298
-3.9777002	fair	-0.22429007
-3.6528697	stronger	-0.17028807
-3.5698454	q2	-0.19574492
-4.233459	additions	-0.11853298
-4.087018	extent	-0.14295563
-4.3265476	concepts	-0.11853298
-3.7556086	sustainable	-0.14295563
-4.233459	attrition	-0.11853298
-4.087018	general	-0.15570207
-3.7556086	employees	-0.15622413
-3.3404112	given	-0.24313144
-3.5001743	changes	-0.16347119
-4.4631143	movements	-0.11853298
-3.7556086	heard	-0.11853298
-3.3874238	continued	-0.21972829
-4.233459	pause	-0.11853298
-3.701208	didn't	-0.16133854
-4.4631143	50k	-0.11853298
-4.087018	achievable	-0.11853298
-4.4631143	exceed	-0.11853298
-4.087018	fall	-0.11853298
-4.4631143	thresholds	-0.11853298
-4.4631143	reallocated	-0.11853298
-4.3265476	accordingly	-0.11853298
-4.4631143	row	-0.11853298
-4.3265476	absence	-0.24120474
-4.3265476	reshuffling	-0.11853298
-3.5001743	europe	-0.24613911
-3.9777002	breakdown	-0.15019345
-4.233459	metrics	-0.11853298
-4.233459	disclose	-0.11853298
-3.4401503	day	-0.25580385
-4.087018	exit	-0.11853298
-3.318685	we'll	-0.21562827
-4.3265476	chance	-0.24120474
-4.4631143	sheets	-0.11853298
-3.6528697	secured	-0.11853298
-3.8904395	financing	-0.11853298
-4.4631143	promissory	-0.11853298
-3.8178124	note	-0.16883402
-4.3265476	concluded	-0.11853298
-3.318685	certainly	-0.16704401
-3.7556086	used	-0.2860889
-4.233459	regrouping	-0.11853298
-3.8904395	adjustments	-0.11853298
-4.3265476	salaries	-0.11853298
-4.087018	her	-0.11853298
-3.8904395	proven	-0.11853298
-4.4631143	expert	-0.11853298
-4.3265476	knowledge	-0.11853298
-4.4631143	swaths	-0.11853298
-4.087018	somehow	-0.11853298
-4.4631143	grabbing	-0.11853298
-4.3265476	features	-0.11853298
-4.3265476	function	-0.11853298
-3.6093764	competitive	-0.11853298
-4.233459	landscape	-0.16353351
-4.4631143	dealing	-0.11853298
-2.8783057	any	-0.19685596
-3.9777002	indications	-0.11853298
-3.4129872	change	-0.22297044
-4.3265476	moves	-0.11853298
-4.233459	enter	-0.11853298
-4.4631143	verticals	-0.11853298
-4.233459	haven't	-0.11853298
-3.3632817	acquisitions	-0.2079577
-3.6528697	help	-0.22584064
-4.3265476	influence	-0.11853298
-3.6093764	issue	-0.18285641
-4.4631143	technically	-0.11853298
-3.8178124	difference	-0.20612524
-4.4631143	anybody	-0.11853298
-4.233459	straight	-0.11853298
-3.2071629	too	-0.37549475
-4.087018	quantify	-0.15019345
-4.4631143	settled	-0.11853298
-4.4631143	physical	-0.11853298
-4.233459	leadership	-0.19635262
-3.8904395	kick	-0.25055602
-4.233459	leaders	-0.11853298
-3.8178124	precise	-0.16883402
-4.233459	stuff	-0.11853298
-4.233459	yep	-0.19635262
-3.8178124	accelerated	-0.15019345
-4.4631143	leaves	-0.11853298
-3.8904395	along	-0.15570207
-3.9777002	comprehensive	-0.22429007
-4.3265476	summarize	-0.11853298
-4.3265476	entire	-0.11853298
-4.3265476	dive	-0.24120474
-4.4631143	vast	-0.11853298
-4.3265476	majority	-0.17555189
-4.4631143	canceled	-0.11853298
-4.4631143	reduced	-0.11853298
-4.4631143	intend	-0.11853298
-4.4631143	suspension	-0.11853298
-3.8904395	campaigns	-0.19635262
-4.4631143	reshuffles	-0.11853298
-4.4631143	bookends	-0.11853298
-4.4631143	asps	-0.11853298
-3.6528697	previous	-0.20153968
-4.4631143	pin	-0.11853298
-4.233459	joining	-0.15019345
-4.4631143	disadvantage	-0.11853298
-3.7556086	reported	-0.16353351
-3.9777002	gone	-0.19135772
-3.469126	areas	-0.1995991
-4.087018	honestly	-0.16353351
-4.087018	importance	-0.21374163
-4.4631143	liquidity	-0.11853298
-4.087018	decided	-0.3034713
-4.4631143	initiate	-0.11853298
-4.4631143	eurlo	-0.11853298
-3.5001743	sell	-0.17219482
-2.9536695	related	-0.4236632
-3.469126	bank	-0.23350641
-4.4631143	enabled	-0.11853298
-4.3265476	visit	-0.11853298
-4.233459	virtual	-0.11853298
-4.4631143	branch	-0.11853298
-3.7556086	although	-0.13841179
-4.233459	absolute	-0.15570207
-3.8904395	rapidly	-0.14295563
-3.6528697	material	-0.16378608
-4.3265476	difficulty	-0.11853298
-4.3265476	hearing	-0.11853298
-3.7556086	press	-0.22905593
-3.9777002	star	-0.20882912
-3.318685	zero	-0.40880206
-4.087018	telephone	-0.2717242
-4.3265476	assistance	-0.19635262
-3.5698454	understand	-0.23741794
-3.4129872	whether	-0.21933718
-4.3265476	tailwinds	-0.11853298
-4.3265476	wage	-0.24120474
-3.132082	inflation	-0.24569263
-3.6093764	th	-0.22813429
-4.4631143	roller	-0.11853298
-4.4631143	coaster	-0.11853298
-3.469126	presentation	-0.20038162
-3.6093764	others	-0.18610382
-3.5698454	consumption	-0.15342067
-3.6093764	provided	-0.13407478
-4.3265476	exception	-0.11853298
-4.4631143	workflows	-0.11853298
-4.087018	created	-0.11853298
-3.6093764	record	-0.11853294
-4.233459	mixed	-0.11853298
-4.3265476	feelings	-0.11853298
-3.5698454	consider	-0.257437
-4.233459	bought	-0.11853298
-4.087018	near	-0.43744105
-4.087018	trajectory	-0.17555189
-4.4631143	ramps	-0.11853298
-4.4631143	philosophically	-0.11853298
-3.0123234	costs	-0.28144655
-4.3265476	attached	-0.11853298
-4.233459	bye	-0.11853298
-4.4631143	cheers	-0.11853298
-3.9777002	extra	-0.16883402
-4.4631143	disclosure	-0.11853298
-4.4631143	depresses	-0.11853298
-4.3265476	acknowledged	-0.11853298
-4.4631143	exceptionally	-0.11853298
-4.233459	ultimately	-0.11853298
-4.3265476	quantitative	-0.11853298
-3.6528697	following	-0.20123142
-4.087018	managing	-0.11853298
-4.233459	fact	-0.13529362
-4.4631143	highest	-0.11853298
-4.087018	played	-0.15570207
-3.8178124	card	-0.13672
-4.4631143	recapital	-0.11853298
-3.7556086	priority	-0.17555194
-4.4631143	dilutive	-0.11853298
-4.4631143	baked	-0.11853298
-3.5001743	expectations	-0.22262384
-3.8904395	confirm	-0.19285016
-4.4631143	weighted	-0.11853298
-4.4631143	portfolios	-0.11853298
-3.469126	ninety	-0.256885
-3.8904395	type	-0.18155827
-3.5001743	interesting	-0.16603617
-4.4631143	sheer	-0.11853298
-4.4631143	hundreds	-0.11853298
-4.3265476	millions	-0.11853298
-4.233459	windows	-0.11853298
-3.3404112	system	-0.19538905
-4.4631143	summarizing	-0.11853298
-3.8178124	continuing	-0.18155827
-3.1605763	demand	-0.2668876
-4.233459	mentioning	-0.17555189
-3.9777002	predominantly	-0.11853298
-4.087018	focusing	-0.17555189
-3.5336142	talking	-0.4912373
-3.701208	soon	-0.24770842
-4.233459	consistently	-0.19635262
-3.9777002	maintained	-0.11853298
-4.233459	boost	-0.11853298
-4.233459	lasting	-0.11853298
-4.4631143	relationships	-0.11853298
-4.233459	multiple	-0.11853298
-4.233459	respective	-0.11853298
-3.5698454	page	-0.18130842
-4.4631143	colleague	-0.11853298
-3.6528697	expecting	-0.16347119
-3.4129872	production	-0.15848285
-4.4631143	forget	-0.11853298
-4.4631143	serves	-0.11853298
-4.3265476	funnel	-0.11853298
-3.5336142	extremely	-0.257437
-4.4631143	sm	-0.11853298
-3.8904395	welcome	-0.1592443
-4.4631143	immediate	-0.11853298
-3.8904395	thoughts	-0.19135772
-4.4631143	rolled	-0.11853298
-4.4631143	dealers	-0.11853298
-4.4631143	worldwide	-0.11853298
-4.3265476	solve	-0.11853298
-4.087018	problems	-0.11853298
-4.233459	efficiently	-0.11853298
-4.4631143	accurately	-0.11853298
-3.9777002	state	-0.11853298
-3.5336142	achieved	-0.27846828
-3.6093764	earlier	-0.17854473
-4.4631143	deceleration	-0.11853298
-4.4631143	consequentially	-0.11853298
-3.5336142	sure	-0.25128436
-3.7556086	visibility	-0.18112674
-4.4631143	whe	-0.11853298
-4.087018	charge	-0.11853298
-3.2782447	less	-0.1791151
-4.4631143	expensed	-0.11853298
-4.233459	y	-0.11853298
-4.4631143	carryover	-0.11853298
-4.233459	fundamentally	-0.11853298
-4.233459	size	-0.11853298
-4.4631143	wondered	-0.11853298
-3.2238727	something	-0.3504438
-4.4631143	distorts	-0.11853298
-3.8904395	except	-0.3034713
-4.233459	impressive	-0.11853298
-3.9777002	largest	-0.11853298
-3.701208	drivers	-0.20054454
-4.233459	reacting	-0.19635262
-4.233459	post	-0.11853298
-4.087018	stay	-0.14610738
-3.3404112	levels	-0.26472816
-4.4631143	deutsche	-0.11853298
-3.9777002	manage	-0.11853298
-4.3265476	slides	-0.11853298
-3.8904395	contributing	-0.2047774
-3.8178124	giving	-0.17555189
-3.8904395	best	-0.14610738
-4.087018	protection	-0.16353351
-3.6528697	beyond	-0.16353351
-4.4631143	pure	-0.11853298
-4.3265476	branding	-0.11853298
-4.4631143	impressions	-0.11853298
-3.6528697	provide	-0.17492329
-3.8178124	mitigate	-0.19635262
-4.4631143	suggested	-0.11853298
-4.3265476	conservatism	-0.11853298
-4.233459	meaning	-0.11853298
-4.3265476	disruption	-0.11853298
-4.087018	gives	-0.35221827
-4.4631143	regenerate	-0.11853298
-4.4631143	breaking	-0.11853298
-3.6528697	offset	-0.22543202
-3.469126	moving	-0.17555189
-3.3874238	profit	-0.20764092
-4.4631143	remained	-0.11853298
-4.3265476	standing	-0.11853298
-4.087018	benefiting	-0.43744105
-3.132082	capex	-0.2700261
-3.318685	interest	-0.27177086
-4.087018	payments	-0.15570207
-4.4631143	define	-0.11853298
-4.4631143	invoice	-0.11853298
-4.087018	least	-0.14459834
-3.7556086	month	-0.16820025
-3.9777002	elaborate	-0.3175028
-3.5698454	relatively	-0.11853298
-4.233459	evolve	-0.11853298
-4.233459	necessarily	-0.14610738
-3.8904395	reflected	-0.2047774
-4.3265476	showed	-0.11853298
-4.087018	adds	-0.11853298
-3.7556086	remains	-0.14610738
-4.3265476	absorbed	-0.11853298
-4.3265476	evaluate	-0.16353351
-3.0801544	organic	-0.66098267
-4.233459	encouraging	-0.3125023
-3.9777002	accounted	-0.43139952
-4.4631143	here's	-0.11853298
-3.5001743	sixteen	-0.15019345
-4.233459	amounted	-0.3125023
-4.087018	aggressive	-0.11853298
-4.3265476	stance	-0.11853298
-4.4631143	monetize	-0.11853298
-4.4631143	print	-0.11853298
-3.7556086	fast	-0.14295563
-4.4631143	restaurant	-0.11853298
-4.087018	internal	-0.11853298
-3.701208	called	-0.11853298
-3.469126	eighteen	-0.21444423
-4.4631143	boasts	-0.11853298
-3.9777002	improvements	-0.16353351
-3.6528697	international	-0.22333199
-4.3265476	initiated	-0.11853298
-3.5336142	pandemic	-0.18104249
-3.7556086	bring	-0.17903434
-4.4631143	headquarter	-0.11853298
-4.3265476	functional	-0.11853298
-4.087018	established	-0.11853298
-3.6528697	launched	-0.15622413
-3.6528697	issues	-0.13841179
-4.3265476	faced	-0.11853298
-3.5336142	potentially	-0.13210134
-4.3265476	measuring	-0.11853298
-3.8904395	leads	-0.19635262
-4.4631143	bifurcation	-0.11853298
-4.233459	resilience	-0.11853298
-4.3265476	reliability	-0.11853298
-4.3265476	win	-0.11853298
-3.8904395	developing	-0.11853298
-3.9777002	relative	-0.22429007
-4.3265476	diminish	-0.11853298
-3.9777002	relevance	-0.19635262
-4.4631143	underpins	-0.11853298
-4.087018	often	-0.17555189
-4.087018	contact	-0.11853298
-4.087018	upwards	-0.17555189
-3.8904395	shows	-0.11853298
-4.233459	latest	-0.11853298
-4.233459	slight	-0.11853298
-4.233459	explained	-0.11853298
-4.233459	triggered	-0.19635262
-3.8904395	gained	-0.11853298
-3.9777002	peak	-0.17555189
-3.9777002	figure	-0.11853298
-4.4631143	combine	-0.11853298
-3.8178124	elements	-0.14045063
-4.233459	declining	-0.11853298
-4.4631143	derived	-0.11853298
-4.3265476	takes	-0.11853298
-4.233459	contingency	-0.19635262
-4.3265476	discuss	-0.11853298
-4.4631143	voice	-0.11853298
-4.3265476	eye	-0.11853298
-4.233459	controlled	-0.11853298
-4.3265476	hands	-0.11853298
-4.3265476	entry	-0.11853298
-4.3265476	home	-0.11853298
-4.3265476	computer	-0.11853298
-4.233459	connecting	-0.11853298
-4.4631143	differentiate	-0.11853298
-4.087018	pieces	-0.25530827
-3.3874238	order	-0.37850142
-4.3265476	provider	-0.11853298
-4.233459	situations	-0.19635262
-3.8904395	connection	-0.15019345
-4.087018	security	-0.11853298
-3.8904395	cover	-0.15570207
-3.2071629	work	-0.18900746
-3.4401503	offer	-0.12716778
-4.4631143	education	-0.11853298
-3.701208	sector	-0.13672
-4.087018	george	-0.11853298
-4.4631143	webb	-0.11853298
-4.4631143	stanley	-0.11853298
-3.701208	improving	-0.18112674
-3.7556086	showing	-0.14045063
-3.9777002	infrastructure	-0.11853298
-4.3265476	scales	-0.11853298
-3.9777002	conclude	-0.15570207
-4.3265476	ad	-0.11853298
-4.4631143	hoc	-0.11853298
-3.8904395	remind	-0.3034713
-3.8178124	statements	-0.16353351
-4.4631143	subsequent	-0.11853298
-3.2782447	while	-0.14950491
-4.3265476	allows	-0.24120474
-3.8178124	his	-0.14045063
-4.3265476	adequate	-0.11853298
-4.087018	execute	-0.16353351
-4.4631143	wrapping	-0.11853298
-4.4631143	highlighting	-0.11853298
-4.4631143	abb's	-0.11853298
-4.4631143	choice	-0.11853298
-4.4631143	stabilized	-0.11853298
-4.087018	indicator	-0.15570207
-3.5698454	decline	-0.21430905
-4.233459	accelerating	-0.11853298
-4.087018	updated	-0.11853298
-4.233459	briefly	-0.11853298
-4.4631143	announcing	-0.11853298
-4.4631143	quar	-0.11853298
-3.8178124	closing	-0.15019345
-3.9777002	remarks	-0.18434481
-4.4631143	speakers	-0.11853298
-3.8904395	can't	-0.16820025
-4.233459	temporarily	-0.11853298
-4.3265476	raising	-0.11853298
-4.087018	effective	-0.11853298
-4.4631143	gear	-0.11853298
-3.8904395	paying	-0.11853298
-4.3265476	overview	-0.24120474
-4.3265476	kpis	-0.11853298
-4.087018	h	-0.11853298
-4.3265476	exist	-0.11853298
-4.087018	pull	-0.15019345
-4.4631143	metaverse	-0.11853298
-4.233459	opinion	-0.14045063
-4.233459	picked	-0.19635262
-3.5336142	retail	-0.15074702
-4.087018	bulgari	-0.15570207
-4.233459	bar	-0.11853298
-4.4631143	arnault	-0.11853298
-3.4401503	tiffany	-0.1772896
-4.087018	telling	-0.11853298
-4.4631143	merits	-0.11853298
-3.6093764	tell	-0.42968872
-3.9777002	main	-0.13210134
-3.8904395	operations	-0.21360183
-4.4631143	communicated	-0.11853298
-3.2782447	brands	-0.30068228
-3.5698454	indeed	-0.16347119
-3.318685	prices	-0.30779517
-4.3265476	reluctant	-0.24120474
-3.5336142	exactly	-0.13529362
-3.469126	fashion	-0.4091909
-3.8904395	leather	-0.3034713
-4.087018	goods	-0.13210134
-3.5336142	division	-0.1850769
-4.087018	wonderful	-0.11853298
-3.701208	watch	-0.17089
-4.087018	wasn't	-0.11853298
-4.3265476	aware	-0.19635262
-3.8904395	accounts	-0.15570207
-4.233459	groups	-0.11853298
-4.3265476	successes	-0.11853298
-4.4631143	seek	-0.11853298
-4.3265476	dozen	-0.11853298
-4.233459	stands	-0.11853298
-3.8904395	sephora	-0.11853298
-3.8178124	vuitton	-0.1454221
-3.7556086	o	-0.19285016
-4.3265476	specifics	-0.11853298
-3.9777002	profits	-0.14610738
-4.3265476	renovation	-0.24120474
-4.233459	flagship	-0.11853298
-4.4631143	renew	-0.11853298
-4.4631143	reopen	-0.11853298
-3.3632817	mr	-0.7560253
-4.3265476	evening	-0.15019345
-3.8904395	perfumes	-0.3034713
-4.233459	cosmetics	-0.11853298
-3.7556086	face	-0.24649371
-4.087018	ways	-0.11853298
-4.3265476	react	-0.11853298
-4.087018	sustained	-0.11853298
-4.3265476	words	-0.11853298
-3.7556086	dividends	-0.19635262
-4.4631143	propose	-0.11853298
-4.3265476	april	-0.15019345
-3.2782447	per	-0.27580348
-3.3632817	dividend	-0.28221148
-3.9777002	minus	-0.14045063
-4.4631143	verses	-0.11853298
-4.4631143	exciting	-0.11853298
-3.3874238	income	-0.25304326
-4.4631143	nil	-0.11853298
-3.9777002	losses	-0.15570207
-4.233459	intangible	-0.25530827
-3.5336142	assets	-0.24298829
-4.4631143	loro	-0.11853298
-4.4631143	piana	-0.11853298
-4.4631143	l'oeuvre	-0.11853298
-4.3265476	favor	-0.11853298
-4.4631143	explanations	-0.11853298
-4.4631143	listened	-0.11853298
-4.087018	japan	-0.11853298
-4.4631143	gathered	-0.11853298
-4.3265476	review	-0.11853298
-4.4631143	indirectly	-0.11853298
-4.3265476	zoom	-0.11853298
-4.233459	perfume	-0.15570207
-4.4631143	eau	-0.11853298
-3.701208	de	-0.15570207
-4.4631143	parfum	-0.11853298
-4.4631143	l'art	-0.11853298
-4.233459	la	-0.11853298
-4.4631143	matiere	-0.11853298
-4.3265476	aqua	-0.11853298
-4.4631143	allegoria	-0.11853298
-4.3265476	paradox	-0.11853298
-4.3265476	inc	-0.11853298
-3.9777002	became	-0.16353351
-3.7556086	wines	-0.55633825
-4.4631143	spirits	-0.11853298
-3.3632817	available	-0.29884
-4.087018	applications	-0.11853298
-4.4631143	unforgettable	-0.11853298
-3.701208	event	-0.17408653
-3.7556086	extraordinary	-0.17555189
-4.4631143	debate	-0.11853298
-3.9777002	structural	-0.11853298
-4.087018	cyclical	-0.17555189
-4.3265476	unrealized	-0.24120474
-3.9777002	gain	-0.11853298
-4.233459	dispose	-0.19635262
-4.4631143	properties	-0.11853298
-3.701208	figures	-0.11853298
-3.9777002	won't	-0.1592443
-4.3265476	truly	-0.11853298
-3.701208	presence	-0.14045063
-4.4631143	extensive	-0.11853298
-3.5336142	louis	-0.94932437
-4.3265476	accretion	-0.11853298
-4.087018	leases	-0.11853298
-3.7556086	shouldn't	-0.27846828
-4.3265476	god	-0.11853298
-4.3265476	hedges	-0.11853298
-3.8904395	derivatives	-0.15019345
-3.469126	situation	-0.1866699
-4.3265476	repeat	-0.11853298
-3.9777002	sophisticated	-0.11853298
-4.4631143	appeal	-0.11853298
-3.8178124	special	-0.15019345
-3.9777002	christian	-0.53435105
-3.7556086	dior	-0.16693352
-4.233459	house	-0.11853298
-4.3265476	magnificent	-0.11853298
-4.4631143	officine	-0.11853298
-4.4631143	universelle	-0.11853298
-4.4631143	buly	-0.11853298
-4.4631143	headed	-0.11853298
-4.4631143	founded	-0.11853298
-4.4631143	victoire	-0.11853298
-4.4631143	taillac	-0.11853298
-4.4631143	renowned	-0.11853298
-3.8178124	creative	-0.15019345
-4.4631143	inspired	-0.11853298
-4.087018	french	-0.11853298
-4.3265476	tradition	-0.11853298
-4.4631143	aesthetic	-0.11853298
-4.3265476	design	-0.17555189
-4.3265476	boutiques	-0.11853298
-3.8904395	original	-0.15019345
-4.4631143	inspiring	-0.11853298
-3.259354	gross	-0.49812686
-4.3265476	afternoon	-0.11853298
-4.233459	history	-0.11853298
-3.9777002	selective	-0.35221827
-3.8904395	mention	-0.11853298
-4.4631143	octo	-0.11853298
-4.4631143	finissimo	-0.11853298
-4.4631143	aiguille	-0.11853298
-4.4631143	d'or	-0.11853298
-4.233459	grand	-0.19635262
-3.9777002	prize	-0.11853298
-4.4631143	switzerland	-0.11853298
-4.4631143	antony	-0.11853298
-3.8178124	jean	-0.42841002
-4.4631143	jacques	-0.11853298
-4.3265476	guiony	-0.11853298
-4.233459	myself	-0.11853298
-4.233459	decide	-0.19635262
-4.4631143	suited	-0.11853298
-4.233459	demands	-0.19635262
-3.7556086	result	-0.13302119
-4.3265476	designers	-0.11853298
-4.087018	virgil	-0.11853298
-4.4631143	ideas	-0.11853298
-4.3265476	whilst	-0.11853298
-4.4631143	attracting	-0.11853298
-4.4631143	youngest	-0.11853298
-4.3265476	mature	-0.19635262
-3.701208	world	-0.1557021
-4.087018	asian	-0.15570207
-4.233459	visitors	-0.11853298
-3.5698454	far	-0.22543202
-3.8904395	taken	-0.11853298
-4.087018	matter	-0.24120474
-4.4631143	weathering	-0.11853298
-3.7556086	economic	-0.17408653
-3.7556086	crisis	-0.14045063
-4.4631143	shock	-0.11853298
-4.3265476	nobody	-0.11853298
-4.233459	him	-0.19635262
-4.4631143	die	-0.11853298
-4.233459	young	-0.11853298
-4.4631143	chanel	-0.11853298
-4.087018	beautiful	-0.11853298
-4.4631143	refused	-0.11853298
-4.233459	shops	-0.11853298
-4.4631143	speaks	-0.11853298
-3.7556086	itself	-0.23271081
-4.4631143	attended	-0.11853298
-3.8178124	week	-0.14295563
-4.4631143	tribute	-0.11853298
-4.4631143	memory	-0.11853298
-4.4631143	abloh	-0.11853298
-4.087018	passed	-0.11853298
-4.4631143	sadly	-0.11853298
-3.9777002	november	-0.14295563
-4.3265476	antoine	-0.11853298
-4.4631143	belge	-0.11853298
-4.233459	concerned	-0.13841179
-3.5698454	answer	-0.18786848
-4.087018	session	-0.15570207
-4.4631143	retailing	-0.11853298
-4.3265476	celine	-0.11853298
-4.3265476	world's	-0.11853298
-4.233459	champagne	-0.17555189
-4.3265476	cognac	-0.11853298
-4.4631143	chine	-0.11853298
-3.8178124	programs	-0.15019345
-4.233459	respect	-0.11853298
-4.087018	one's	-0.11853298
-4.4631143	dignity	-0.11853298
-4.4631143	individuality	-0.11853298
-3.8178124	try	-0.42664728
-4.087018	reasonable	-0.11853298
-4.233459	realistic	-0.11853298
-4.4631143	artificially	-0.11853298
-4.3265476	inflated	-0.11853298
-4.3265476	forecasting	-0.11853298
-4.087018	edward	-0.17555189
-4.3265476	explains	-0.11853298
-4.3265476	ordinary	-0.19635262
-4.4631143	cheaper	-0.11853298
-3.8178124	cfo	-0.17555194
-4.4631143	carerra	-0.11853298
-4.3265476	porsche	-0.11853298
-4.3265476	appealing	-0.11853298
-4.4631143	causes	-0.11853298
-4.4631143	aspire	-0.11853298
-4.3265476	acquire	-0.11853298
-3.701208	european	-0.17028807
-3.8904395	statement	-0.17555189
-3.8904395	hope	-0.25245067
-4.4631143	organize	-0.11853298
-3.5001743	considering	-0.25642785
-4.4631143	feels	-0.11853298
-4.4631143	fun	-0.11853298
-4.4631143	motivated	-0.11853298
-3.6528697	risk	-0.19466782
-3.8178124	recurring	-0.17453687
-3.701208	chinese	-0.11853298
-4.087018	suffer	-0.11853298
-4.3265476	lvmh	-0.11853298
-4.4631143	minority	-0.11853298
-4.3265476	interests	-0.11853298
-3.0801544	including	-0.2053301
-4.4631143	moet	-0.11853298
-4.4631143	hennessy	-0.11853298
-4.3265476	taxes	-0.11853298
-3.701208	challenging	-0.21415134
-4.4631143	instructive	-0.11853298
-3.6528697	everything	-0.16344287
-3.7556086	expensive	-0.14295563
-4.3265476	numerous	-0.11853298
-3.701208	countries	-0.13672
-4.4631143	pervasive	-0.11853298
-3.4129872	stores	-0.28411177
-4.4631143	jw	-0.11853298
-4.4631143	anderson	-0.11853298
-4.233459	limit	-0.16353351
-4.087018	worked	-0.17555189
-4.4631143	patou	-0.11853298
-4.233459	invite	-0.19635262
-4.3265476	taste	-0.11853298
-4.233459	ensure	-0.19635262
-4.3265476	buys	-0.11853298
-3.6528697	he	-0.15342067
-3.8904395	beginning	-0.30050218
-4.087018	internet	-0.15019345
-4.4631143	thousand's	-0.11853298
-4.4631143	sorts	-0.11853298
-4.4631143	cropping	-0.11853298
-4.233459	center	-0.11853298
-4.4631143	bubble	-0.11853298
-4.4631143	burst	-0.11853298
-3.9777002	losing	-0.11853298
-3.9777002	money	-0.11853298
-4.4631143	black	-0.11853298
-4.4631143	liabilities	-0.11853298
-3.6528697	generated	-0.1592443
-4.4631143	mourning	-0.11853298
-4.087018	acceleration	-0.19635262
-4.233459	delphine	-0.19635262
-4.3265476	particular	-0.11853298
-4.3265476	sophistication	-0.11853298
-3.8178124	watches	-0.2612367
-4.087018	jewelry	-0.11853298
-3.8178124	consolidation	-0.14295563
-4.3265476	prospects	-0.11853298
-4.3265476	phone	-0.11853298
-4.3265476	angelina	-0.11853298
-4.4631143	red	-0.11853298
-3.8178124	circumstances	-0.11853298
-4.233459	producing	-0.11853298
-4.3265476	couture	-0.11853298
-4.3265476	paris	-0.11853298
-4.4631143	bag	-0.11853298
-4.233459	waiting	-0.19635262
-4.3265476	everywhere	-0.11853298
-4.233459	useful	-0.19635262
-3.9777002	f	-0.11853298
-4.3265476	interested	-0.11853298
-4.4631143	pair	-0.11853298
-4.3265476	sneakers	-0.24120474
-4.233459	exceptional	-0.11853298
-4.087018	opened	-0.11853298
-3.9777002	dedicated	-0.11853298
-4.3265476	notably	-0.11853298
-4.4631143	hainan	-0.11853298
-4.4631143	island	-0.11853298
-4.087018	directly	-0.11853298
-4.233459	traceability	-0.11853298
-4.4631143	vineyards	-0.11853298
-3.8178124	supplies	-0.11853298
-3.4401503	raw	-0.7560253
-3.6528697	materials	-0.18172328
-4.4631143	cotton	-0.11853298
-4.3265476	gold	-0.11853298
-4.4631143	equipped	-0.11853298
-3.701208	various	-0.11853298
-4.233459	chains	-0.15570207
-4.3265476	achieving	-0.11853298
-4.087018	lost	-0.11853298
-3.6528697	travel	-0.16344287
-4.4631143	picks	-0.11853298
-3.4401503	gonna	-0.2613334
-3.701208	happen	-0.16347119
-4.233459	un	-0.11853298
-3.8178124	unfortunately	-0.11853298
-4.233459	learned	-0.11853298
-3.9777002	passing	-0.11853298
-4.4631143	miami	-0.11853298
-4.4631143	location	-0.11853298
-4.4631143	district	-0.11853298
-4.4631143	obtain	-0.11853298
-3.9777002	excellent	-0.11853298
-3.9777002	locations	-0.11853298
-4.3265476	mustn't	-0.11853298
-4.3265476	hurry	-0.19635262
-4.4631143	universes	-0.11853298
-4.4631143	stimulates	-0.11853298
-4.3265476	creates	-0.11853298
-4.233459	desire	-0.11853298
-4.3265476	complicated	-0.11853298
-3.6528697	scope	-0.2813798
-3.9777002	simple	-0.16353351
-3.9777002	head	-0.22429007
-4.3265476	professionals	-0.11853298
-4.3265476	knew	-0.11853298
-4.3265476	communication	-0.11853298
-3.3632817	distribution	-0.18317744
-4.3265476	creator	-0.19635262
-4.233459	designer	-0.11853298
-4.3265476	equally	-0.11853298
-4.4631143	legitimate	-0.11853298
-4.4631143	reputed	-0.11853298
-4.3265476	nobel	-0.11853298
-4.3265476	winners	-0.11853298
-4.087018	com	-0.17555189
-4.4631143	incidental	-0.11853298
-4.4631143	mettany	-0.11853298
-3.8904395	refer	-0.43139952
-4.4631143	tiff	-0.11853298
-4.3265476	tiffany's	-0.11853298
-4.233459	sells	-0.19635262
-4.4631143	worried	-0.11853298
-4.4631143	fearing	-0.11853298
-4.4631143	galloping	-0.11853298
-4.3265476	recession	-0.11853298
-4.4631143	believed	-0.11853298
-4.4631143	appearing	-0.11853298
-3.8904395	linked	-0.3034713
-4.233459	maria	-0.17555189
-4.4631143	grazia	-0.11853298
-4.4631143	chiuri	-0.11853298
-4.087018	kim	-0.18112674
-4.4631143	jones	-0.11853298
-4.4631143	designing	-0.11853298
-3.5698454	life	-0.16663909
-4.3265476	spirit	-0.11853298
-4.233459	realize	-0.11853298
-4.4631143	earth	-0.11853298
-4.087018	properly	-0.17555189
-3.3632817	rather	-0.16850036
-3.9777002	thought	-0.11853298
-4.4631143	provoking	-0.11853298
-4.3265476	universe	-0.11853298
-3.8904395	happening	-0.15570207
-4.3265476	elsewhere	-0.11853298
-4.4631143	clientele	-0.11853298
-4.087018	rapid	-0.16353351
-4.4631143	glenmorangie	-0.11853298
-4.4631143	whiskey	-0.11853298
-4.4631143	ardbeg	-0.11853298
-4.087018	received	-0.11853298
-4.4631143	master	-0.11853298
-4.4631143	distiller	-0.11853298
-4.4631143	fifth	-0.11853298
-4.087018	consecutive	-0.17555189
-4.3265476	sauvage	-0.11853298
-3.469126	led	-0.7104423
-4.4631143	sister	-0.11853298
-3.5698454	longer	-0.25901917
-4.087018	commitments	-0.11853298
-4.4631143	csr	-0.11853298
-4.233459	closely	-0.11853298
-4.087018	members	-0.16353351
-4.3265476	executive	-0.11853298
-4.3265476	committee	-0.11853298
-4.233459	attending	-0.25530827
-4.3265476	carefully	-0.11853298
-4.3265476	slow	-0.24120474
-4.3265476	agree	-0.11853298
-4.087018	resume	-0.11853298
-4.233459	whenever	-0.19635262
-4.4631143	nurture	-0.11853298
-4.087018	must	-0.11853298
-4.4631143	occur	-0.11853298
-4.4631143	overnight	-0.11853298
-4.4631143	prosper	-0.11853298
-3.9777002	performed	-0.11853298
-3.701208	ex	-0.24770842
-3.9777002	iconic	-0.22429007
-4.4631143	facebook's	-0.11853298
-3.9777002	pulled	-0.16353351
-4.4631143	failed	-0.11853298
-3.5698454	segment	-0.23221838
-3.8904395	specifically	-0.19635262
-3.9777002	dollars	-0.11853298
-4.3265476	beat	-0.11853298
-4.3265476	tag	-0.24120474
-4.4631143	heuer	-0.11853298
-4.3265476	hublot	-0.11853298
-4.087018	zenith	-0.17555189
-3.5001743	affected	-0.37459964
-4.4631143	rebounded	-0.11853298
-3.8178124	assume	-0.22333199
-4.3265476	cyclicality	-0.11853298
-4.087018	happens	-0.11853298
-4.233459	family	-0.11853298
-3.701208	operation	-0.16820025
-3.9777002	write	-0.16353351
-4.4631143	craftsmen	-0.11853298
-4.3265476	sites	-0.11853298
-4.4631143	france	-0.11853298
-3.9777002	actual	-0.18155827
-3.9777002	meeting	-0.16353351
-4.233459	values	-0.11853298
-4.4631143	creativity	-0.11853298
-4.3265476	quest	-0.11853298
-3.5336142	quality	-0.1951267
-4.4631143	entrepreneurial	-0.11853298
-4.4631143	motivates	-0.11853298
-4.233459	normalized	-0.11853298
-4.233459	live	-0.11853298
-4.087018	carbon	-0.11853298
-4.4631143	pursuing	-0.11853298
-4.3265476	actively	-0.11853298
-4.4631143	experts	-0.11853298
-4.4631143	specialists	-0.11853298
-4.4631143	differing	-0.11853298
-3.6528697	percent	-0.17854473
-3.8904395	vis	-0.2603765
-4.3265476	advertising	-0.11853298
-3.9777002	h1	-0.16347119
-4.233459	h2	-0.11853298
-4.3265476	auction	-0.11853298
-4.4631143	charity	-0.11853298
-3.8904395	sold	-0.11853298
-3.9777002	invest	-0.14610738
-4.3265476	concern	-0.11853298
-4.4631143	transitory	-0.11853298
-4.4631143	bottleneck	-0.11853298
-3.9777002	economy	-0.14610738
-3.259354	supply	-0.32759455
-4.4631143	ports	-0.11853298
-4.4631143	unload	-0.11853298
-4.3265476	containers	-0.11853298
-4.233459	etc	-0.3125023
-3.8904395	january	-0.15019345
-4.087018	pace	-0.17555189
-4.4631143	underperformed	-0.11853298
-3.9777002	surprise	-0.2047774
-4.3265476	stack	-0.11853298
-3.5336142	expansion	-0.14890336
-3.8904395	dfs	-0.19635262
-4.233459	outlined	-0.11853298
-3.9777002	adjust	-0.11853298
-4.3265476	offers	-0.11853298
-4.4631143	acceptable	-0.11853298
-4.3265476	responsible	-0.11853298
-4.4631143	cheap	-0.11853298
-4.233459	produce	-0.11853298
-4.4631143	instead	-0.11853298
-3.6093764	local	-0.15019345
-4.3265476	challenge	-0.11853298
-3.8904395	easy	-0.11853298
-4.4631143	kinds	-0.11853298
-4.4631143	arrived	-0.11853298
-4.4631143	rebounding	-0.11853298
-4.4631143	followup	-0.11853298
-4.233459	considerable	-0.19635262
-4.4631143	knot	-0.11853298
-4.3265476	hardwear	-0.11853298
-4.233459	famous	-0.11853298
-4.4631143	schlumberger	-0.11853298
-4.4631143	relaunched	-0.11853298
-4.233459	aaron	-0.19635262
-4.3265476	admit	-0.11853298
-3.9777002	assuming	-0.19635262
-4.087018	explain	-0.15019345
-4.233459	turning	-0.17555189
-4.233459	le	-0.19635262
-4.4631143	bon	-0.11853298
-4.4631143	marche	-0.11853298
-3.5336142	recovery	-0.2400647
-4.087018	reopening	-0.22429007
-4.4631143	occasions	-0.11853298
-3.8904395	w	-0.2047774
-3.6093764	context	-0.13529362
-4.4631143	sh	-0.11853298
-4.3265476	modern	-0.11853298
-4.4631143	culturally	-0.11853298
-4.4631143	reaches	-0.11853298
-4.4631143	gen	-0.11853298
-4.3265476	z	-0.11853298
-4.4631143	fans	-0.11853298
-4.3265476	apart	-0.11853298
-4.4631143	magazines	-0.11853298
-4.3265476	equation	-0.11853298
-4.4631143	amh	-0.11853298
-4.4631143	seeks	-0.11853298
-4.4631143	concentrate	-0.11853298
-3.9777002	own	-0.11853298
-4.087018	story	-0.11853298
-4.233459	draw	-0.19635262
-4.4631143	lessons	-0.11853298
-4.4631143	trough	-0.11853298
-4.3265476	fendi	-0.11853298
-4.3265476	torture	-0.11853298
-4.4631143	susanna	-0.11853298
-4.4631143	recycled	-0.11853298
-4.233459	packaging	-0.11853298
-4.233459	objective	-0.11853298
-4.233459	reaching	-0.11853298
-3.9777002	limited	-0.11853298
-3.6093764	constraints	-0.11853298
-4.4631143	stagnated	-0.11853298
-3.5336142	flat	-0.13302119
-3.5698454	volumes	-0.22690974
-4.4631143	abnormally	-0.11853298
-4.233459	check	-0.11853298
-3.8904395	true	-0.11853298
-4.3265476	absorb	-0.11853298
-4.4631143	york	-0.11853298
-4.233459	advantage	-0.11853298
-4.3265476	degree	-0.11853298
-4.233459	aspects	-0.19635262
-4.233459	pleasure	-0.19635262
-4.4631143	champagnes	-0.11853298
-4.4631143	convincing	-0.11853298
-4.087018	tourists	-0.11853298
-4.3265476	parisian	-0.11853298
-4.233459	department	-0.19635262
-4.4631143	absent	-0.11853298
-4.3265476	prevent	-0.11853298
-3.6093764	comparison	-0.18783712
-4.3265476	chaumet	-0.11853298
-4.4631143	tedious	-0.11853298
-4.4631143	structuring	-0.11853298
-4.4631143	pact	-0.11853298
-4.4631143	benchmarks	-0.11853298
-4.4631143	garments	-0.11853298
-4.3265476	shoes	-0.11853298
-4.4631143	music	-0.11853298
-4.4631143	images	-0.11853298
-4.4631143	orchestra	-0.11853298
-4.233459	conductor	-0.11853298
-4.4631143	himself	-0.11853298
-4.233459	chosen	-0.11853298
-4.4631143	gustavo	-0.11853298
-4.4631143	dudamel	-0.11853298
-4.3265476	opera	-0.11853298
-4.4631143	selectivity	-0.11853298
-4.4631143	devotion	-0.11853298
-4.4631143	forces	-0.11853298
-4.3265476	ambassadors	-0.11853298
-4.4631143	accentuated	-0.11853298
-4.4631143	arrival	-0.11853298
-4.233459	amazing	-0.11853298
-4.3265476	fragrance	-0.11853298
-4.4631143	men	-0.11853298
-4.4631143	beating	-0.11853298
-3.701208	women's	-0.2603765
-4.4631143	occasion	-0.11853298
-3.9777002	patek	-0.35221827
-3.7556086	philippe	-0.15570207
-4.4631143	edition	-0.11853298
-4.3265476	blue	-0.11853298
-4.3265476	told	-0.24120474
-4.4631143	found	-0.11853298
-3.8904395	though	-0.11853294
-3.8904395	couldn't	-0.11853298
-3.8178124	buying	-0.11853298
-3.6528697	credit	-0.23424283
-4.233459	foremost	-0.11853298
-4.4631143	buoyed	-0.11853298
-4.4631143	regular	-0.11853298
-3.8178124	ongoing	-0.14610738
-3.469126	innovation	-0.1870499
-4.4631143	jay	-0.11853298
-4.4631143	'80s	-0.11853298
-4.4631143	stop	-0.11853298
-4.4631143	constantly	-0.11853298
-4.3265476	skip	-0.11853298
-4.087018	locked	-0.17555189
-3.8178124	simply	-0.18155827
-4.4631143	gaps	-0.11853298
-4.233459	filled	-0.11853298
-3.7556086	march	-0.11853298
-4.4631143	cultivated	-0.11853298
-4.4631143	man	-0.11853298
-4.4631143	talented	-0.11853298
-4.4631143	hedi	-0.11853298
-4.4631143	slimane	-0.11853298
-3.7556086	ready	-0.38086864
-4.4631143	wear	-0.11853298
-4.233459	unprecedented	-0.11853298
-3.8904395	whereas	-0.18155827
-4.4631143	v	-0.11853298
-4.4631143	machine	-0.11853298
-4.4631143	guerlain	-0.11853298
-4.233459	skincare	-0.11853298
-4.4631143	orchidee	-0.11853298
-4.4631143	imperiale	-0.11853298
-4.4631143	abeille	-0.11853298
-4.4631143	royale	-0.11853298
-4.087018	supporting	-0.17555189
-4.4631143	wellbeing	-0.11853298
-4.4631143	houses	-0.11853298
-3.9777002	allowed	-0.11853298
-4.4631143	flexible	-0.11853298
-4.3265476	hours	-0.11853298
-4.3265476	miss	-0.11853298
-4.4631143	j'adore	-0.11853298
-4.3265476	variations	-0.11853298
-4.4631143	collection	-0.11853298
-4.4631143	privee	-0.11853298
-4.233459	resolved	-0.11853298
-4.4631143	calm	-0.11853298
-3.9777002	normally	-0.11853298
-4.3265476	maison	-0.11853298
-4.4631143	avenue	-0.11853298
-4.4631143	montaigne	-0.11853298
-4.3265476	monsieur	-0.19635262
-3.701208	e	-0.13841179
-3.5336142	store	-0.13407478
-4.3265476	proud	-0.24120474
-4.3265476	tourist	-0.11853298
-3.8904395	ebit	-0.2047774
-4.233459	progression	-0.19635262
-4.4631143	marg	-0.11853298
-3.8904395	sale	-0.11853298
-4.3265476	variation	-0.24120474
-3.9777002	shipments	-0.22905593
-4.4631143	allocating	-0.11853298
-4.3265476	apologize	-0.11853298
-4.3265476	emerge	-0.11853298
-4.4631143	bottles	-0.11853298
-4.4631143	greater	-0.11853298
-4.4631143	tends	-0.11853298
-4.4631143	helping	-0.11853298
-3.5001743	until	-0.3182736
-3.701208	september	-0.18285641
-4.233459	rose	-0.11853298
-4.4631143	chateau	-0.11853298
-4.4631143	d'esclans	-0.11853298
-4.4631143	basement	-0.11853298
-4.3265476	retailers	-0.11853298
-3.5336142	china	-0.17270963
-4.087018	discount	-0.11853298
-4.4631143	'cause	-0.11853298
-4.4631143	hire	-0.11853298
-4.4631143	listed	-0.11853298
-3.8178124	worth	-0.19285016
-4.4631143	twice	-0.11853298
-4.087018	perfect	-0.15019345
-3.7556086	sound	-0.17555189
-4.3265476	caution	-0.24120474
-4.4631143	recycling	-0.11853298
-4.4631143	dozens	-0.11853298
-4.4631143	grown	-0.11853298
-4.4631143	reinvest	-0.11853298
-4.4631143	commit	-0.11853298
-4.233459	individuals	-0.11853298
-4.4631143	difficultly	-0.11853298
-4.4631143	assisted	-0.11853298
-4.4631143	replace	-0.11853298
-4.4631143	vir	-0.11853298
-4.3265476	virginia	-0.11853298
-4.233459	light	-0.11853298
-3.6528697	ability	-0.3034713
-4.4631143	finest	-0.11853298
-3.6093764	normal	-0.1560592
-4.4631143	naturally	-0.11853298
-4.4631143	seizing	-0.11853298
-4.4631143	arise	-0.11853298
-4.4631143	weep	-0.11853298
-4.233459	song	-0.11853298
-3.6093764	every	-0.15951784
-3.8178124	needs	-0.18155827
-4.233459	introduction	-0.11853298
-4.3265476	implications	-0.11853298
-4.233459	steady	-0.11853298
-4.233459	involved	-0.11853298
-4.233459	cultural	-0.11853298
-4.4631143	oldest	-0.11853298
-4.4631143	began	-0.11853298
-4.4631143	napoleon	-0.11853298
-4.4631143	emperor	-0.11853298
-3.8904395	legacy	-0.15019345
-3.9777002	restaurants	-0.15570207
-4.4631143	resumption	-0.11853298
-4.3265476	tourism	-0.11853298
-4.233459	attention	-0.11853298
-3.5001743	possible	-0.2612367
-3.7556086	headwind	-0.1879124
-4.233459	bnp	-0.3125023
-4.4631143	paribas	-0.11853298
-4.3265476	exane	-0.11853298
-4.4631143	strengths	-0.11853298
-4.4631143	fungible	-0.11853298
-4.4631143	tokens	-0.11853298
-4.4631143	ge	-0.11853298
-4.4631143	film	-0.11853298
-4.4631143	films	-0.11853298
-4.4631143	spectacular	-0.11853298
-4.4631143	serpenti	-0.11853298
-4.4631143	diva	-0.11853298
-4.087018	culture	-0.11853298
-4.4631143	americans	-0.11853298
-4.4631143	europeans	-0.11853298
-4.4631143	rouge	-0.11853298
-4.4631143	lipstick	-0.11853298
-4.3265476	prestige	-0.11853298
-3.9777002	capture	-0.11853298
-4.4631143	l'or	-0.11853298
-4.4631143	vie	-0.11853298
-3.8904395	job	-0.15570207
-4.4631143	viewed	-0.11853298
-4.3265476	technical	-0.11853298
-4.4631143	cocktail	-0.11853298
-4.3265476	party	-0.11853298
-4.4631143	guests	-0.11853298
-3.5001743	starting	-0.35962018
-4.4631143	transmitted	-0.11853298
-4.3265476	craftsmanship	-0.11853298
-4.4631143	heritage	-0.11853298
-4.4631143	trades	-0.11853298
-4.3265476	excellence	-0.11853298
-3.8178124	expanding	-0.11853298
-4.4631143	apprentices	-0.11853298
-4.4631143	trained	-0.11853298
-4.3265476	qualified	-0.11853298
-3.8904395	wh	-0.2047774
-4.3265476	lagging	-0.24120474
-4.233459	person	-0.11853298
-4.3265476	expects	-0.11853298
-4.4631143	flaunt	-0.11853298
-4.233459	huge	-0.11853298
-4.4631143	duty	-0.11853298
-4.3265476	odd	-0.11853298
-4.4631143	disposed	-0.11853298
-4.3265476	explanation	-0.11853298
-4.087018	likewise	-0.17555189
-4.3265476	lacked	-0.11853298
-4.4631143	drinks	-0.11853298
-4.087018	offered	-0.11853298
-4.4631143	reception	-0.11853298
-4.233459	bond	-0.11853298
-4.3265476	ever	-0.11853298
-4.4631143	inception	-0.11853298
-4.233459	meant	-0.11853298
-4.4631143	depreciation	-0.11853298
-3.8904395	finished	-0.18434481
-4.233459	nonetheless	-0.11853298
-4.3265476	desirable	-0.11853298
-4.4631143	knocked	-0.11853298
-4.233459	counts	-0.11853298
-4.4631143	deem	-0.11853298
-4.233459	discussing	-0.11853298
-4.4631143	bonsoir	-0.11853298
-4.4631143	absorption	-0.11853298
-4.4631143	exaggeration	-0.11853298
-3.8904395	g	-0.3034713
-4.4631143	deliberate	-0.11853298
-4.4631143	jones'	-0.11853298
-4.4631143	illustration	-0.11853298
-4.4631143	style	-0.11853298
-4.4631143	elegance	-0.11853298
-4.4631143	refinement	-0.11853298
-4.4631143	scissors	-0.11853298
-4.4631143	fetched	-0.11853298
-3.9777002	suffered	-0.16353351
-4.4631143	calculations	-0.11853298
-3.6528697	temporary	-0.21365559
-4.4631143	rebound	-0.11853298
-4.4631143	dynamism	-0.11853298
-3.9777002	nevertheless	-0.16353351
-4.4631143	exceeded	-0.11853298
-3.0563474	capacity	-0.25504273
-4.233459	women	-0.19635262
-4.4631143	whom	-0.11853298
-4.4631143	occupy	-0.11853298
-4.4631143	managerial	-0.11853298
-3.8904395	positions	-0.3034713
-3.6093764	payment	-0.18112674
-4.233459	met	-0.11853298
-4.3265476	sharply	-0.11853298
-4.233459	possibly	-0.11853298
-4.087018	designed	-0.11853298
-3.9777002	prior	-0.15019345
-4.4631143	death	-0.11853298
-4.4631143	ed	-0.11853298
-4.4631143	skills	-0.11853298
-3.8904395	required	-0.11853298
-4.4631143	pleasant	-0.11853298
-4.4631143	generalize	-0.11853298
-4.4631143	japanese	-0.11853298
-4.4631143	artistic	-0.11853298
-4.4631143	director	-0.11853298
-4.4631143	nigo	-0.11853298
-4.4631143	held	-0.11853298
-4.4631143	weekend	-0.11853298
-4.4631143	analyze	-0.11853298
-4.087018	operate	-0.16353351
-4.4631143	airports	-0.11853298
-4.4631143	travelers	-0.11853298
-4.4631143	circularity	-0.11853298
-4.4631143	annum	-0.11853298
-4.4631143	attracts	-0.11853298
-4.4631143	resist	-0.11853298
-4.4631143	dramatic	-0.11853298
-4.4631143	transferred	-0.11853298
-3.7556086	asia	-0.17555194
-3.6093764	north	-0.5405695
-3.8904395	america	-0.18172328
-4.4631143	considerably	-0.11853298
-3.8178124	forecast	-0.18554342
-4.4631143	who's	-0.11853298
-3.8904395	read	-0.11853298
-4.4631143	impression	-0.11853298
-4.4631143	correspond	-0.11853298
-4.3265476	turnaround	-0.11853298
-4.4631143	experience	-0.11853298
-4.4631143	topped	-0.11853298
-4.4631143	visitor	-0.11853298
-4.233459	mark	-0.19635262
-4.233459	congratulations	-0.19635262
-4.4631143	registering	-0.11853298
-4.4631143	contained	-0.11853298
-4.4631143	terrible	-0.11853298
-4.3265476	image	-0.11853298
-4.4631143	prestigious	-0.11853298
-4.4631143	accolade	-0.11853298
-4.4631143	greatly	-0.11853298
-4.233459	developed	-0.11853298
-4.4631143	givenchy	-0.11853298
-4.3265476	fresh	-0.11853298
-3.701208	items	-0.13672
-4.233459	renegotiated	-0.11853298
-4.4631143	names	-0.11853298
-4.4631143	refusing	-0.11853298
-4.4631143	opportune	-0.11853298
-4.4631143	redesigned	-0.11853298
-4.4631143	sluggish	-0.11853298
-4.4631143	establish	-0.11853298
-4.4631143	shop	-0.11853298
-4.4631143	nowhere	-0.11853298
-4.087018	else	-0.22429007
-3.7556086	recently	-0.14295563
-4.4631143	celebrated	-0.11853298
-4.4631143	170th	-0.11853298
-4.4631143	anniversary	-0.11853298
-4.233459	concerns	-0.11853298
-4.3265476	resumed	-0.11853298
-4.233459	preserve	-0.11853298
-4.4631143	enlarging	-0.11853298
-4.3265476	rush	-0.11853298
-4.3265476	rarely	-0.11853298
-3.8904395	took	-0.2047774
-4.3265476	unique	-0.11853298
-4.4631143	cementing	-0.11853298
-3.9777002	release	-0.11853298
-4.4631143	motivate	-0.11853298
-4.4631143	motivation	-0.11853298
-4.3265476	priorities	-0.11853298
-4.4631143	consolidations	-0.11853298
-4.4631143	tragedy	-0.11853298
-4.3265476	peers	-0.11853298
-4.4631143	postponing	-0.11853298
-4.4631143	indicate	-0.11853298
-4.4631143	kenzo	-0.11853298
-4.4631143	hsbc	-0.11853298
-4.3265476	penalize	-0.11853298
-4.4631143	bleak	-0.11853298
-4.3265476	teamed	-0.24120474
-4.4631143	ryan	-0.11853298
-4.4631143	gosling	-0.11853298
-4.4631143	actor	-0.11853298
-4.3265476	champion	-0.11853298
-4.4631143	prix	-0.11853298
-4.3265476	vigilant	-0.11853298
-4.4631143	noting	-0.11853298
-4.4631143	magnum	-0.11853298
-4.4631143	ranked	-0.11853298
-4.4631143	sparkling	-0.11853298
-4.4631143	wine	-0.11853298
-4.4631143	championship	-0.11853298
-4.4631143	designated	-0.11853298
-4.3265476	occurs	-0.11853298
-3.701208	climate	-0.21984401
-3.9777002	promising	-0.15570207
-4.4631143	isolated	-0.11853298
-4.4631143	vat	-0.11853298
-4.4631143	upset	-0.11853298
-4.4631143	apple	-0.11853298
-4.4631143	cart	-0.11853298
-3.701208	s	-0.15019345
-4.4631143	wary	-0.11853298
-4.4631143	bubbles	-0.11853298
-4.087018	test	-0.16353351
-3.6093764	corporate	-0.22074537
-4.233459	responsibility	-0.17555189
-4.4631143	join	-0.11853298
-4.233459	office	-0.11853298
-4.3265476	he's	-0.11853298
-4.3265476	tested	-0.11853298
-4.4631143	symptoms	-0.11853298
-4.4631143	biodiversity	-0.11853298
-4.4631143	hectares	-0.11853298
-4.4631143	fauna	-0.11853298
-4.4631143	flora	-0.11853298
-4.4631143	habitat	-0.11853298
-4.4631143	regenerated	-0.11853298
-3.1460955	earnings	-0.21760996
-4.3265476	remarkably	-0.11853298
-3.7556086	usually	-0.16353351
-4.4631143	kindly	-0.11853298
-4.4631143	introduce	-0.11853298
-3.5698454	largely	-0.15272723
-4.233459	attributable	-0.3125023
-4.4631143	conclusions	-0.11853298
-4.233459	gradually	-0.19635262
-4.4631143	disappeared	-0.11853298
-4.233459	proximity	-0.11853298
-4.3265476	ground	-0.11853298
-4.4631143	halt	-0.11853298
-4.233459	anywhere	-0.19635262
-4.087018	never	-0.11853298
-4.4631143	fabulous	-0.11853298
-4.4631143	desirability	-0.11853298
-4.4631143	decades	-0.11853298
-3.469126	launch	-0.22969727
-4.4631143	samaritaine	-0.11853298
-3.8178124	volatility	-0.17555189
-4.233459	cause	-0.11853298
-3.8178124	factor	-0.11853298
-4.4631143	tasting	-0.11853298
-4.4631143	ruinart	-0.11853298
-4.3265476	beyonce	-0.11853298
-4.4631143	stirred	-0.11853298
-4.3265476	younger	-0.11853298
-4.4631143	herself	-0.11853298
-4.4631143	moon	-0.11853298
-4.4631143	river	-0.11853298
-4.4631143	movie	-0.11853298
-4.4631143	bre	-0.11853298
-4.3265476	breakfast	-0.11853298
-4.4631143	audrey	-0.11853298
-4.4631143	hepburn	-0.11853298
-4.4631143	eating	-0.11853298
-3.6528697	front	-0.18554342
-4.4631143	window	-0.11853298
-4.3265476	digits	-0.11853298
-4.233459	pick	-0.25530827
-4.4631143	chronomaster	-0.11853298
-3.9777002	sport	-0.16353351
-4.4631143	chronograph	-0.11853298
-4.4631143	geneva	-0.11853298
-4.4631143	italian	-0.11853298
-4.4631143	posi	-0.11853298
-4.4631143	cl	-0.11853298
-4.4631143	exceeding	-0.11853298
-4.233459	disconnect	-0.17555189
-4.087018	activity	-0.11853298
-4.4631143	everyone's	-0.11853298
-4.087018	constrained	-0.11853298
-4.3265476	manufactured	-0.11853298
-4.4631143	chandon	-0.11853298
-4.3265476	garden	-0.11853298
-4.4631143	spritz	-0.11853298
-4.4631143	shame	-0.11853298
-4.4631143	promise	-0.11853298
-4.3265476	luxury	-0.11853298
-3.8178124	include	-0.14295563
-3.8178124	book	-0.22646466
-4.4631143	rest	-0.11853298
-3.701208	corona	-0.2891011
-4.4631143	developers	-0.11853298
-3.8904395	manufacturers	-0.11853298
-4.087018	vaccines	-0.11853298
-4.3265476	therapeutics	-0.11853298
-4.087018	tests	-0.11853298
-4.4631143	kits	-0.11853298
-3.8178124	typically	-0.11853298
-4.3265476	heart	-0.11853298
-4.3265476	capitalized	-0.11853298
-3.5001743	maintenance	-0.17145228
-4.233459	agenda	-0.11853298
-3.701208	cell	-0.24311464
-4.4631143	genes	-0.11853298
-4.233459	excel	-0.11853298
-4.4631143	als	-0.11853298
-4.233459	abda	-0.16353351
-4.3265476	obvious	-0.11853298
-3.9777002	economies	-0.3034713
-3.7556086	deferred	-0.42841002
-4.233459	projections	-0.19635262
-4.3265476	sounds	-0.11853298
-4.233459	old	-0.11853298
-4.4631143	anecdote	-0.11853298
-3.9777002	phase	-0.19635262
-3.8904395	capacities	-0.18112674
-4.087018	monoclonal	-0.24120474
-4.3265476	antibody	-0.11853298
-3.8178124	ordering	-0.18155827
-4.3265476	pattern	-0.15570207
-3.4401503	everybody	-0.17854473
-4.4631143	preliminary	-0.11853298
-4.4631143	fiscally	-0.11853298
-4.087018	sartorius	-0.17555189
-4.4631143	stedim	-0.11853298
-4.233459	biotech	-0.25530827
-4.233459	addressing	-0.11853298
-4.087018	innovative	-0.11853298
-4.3265476	fields	-0.11853298
-4.087018	therapies	-0.11853298
-4.233459	gene	-0.17555189
-4.087018	setting	-0.17555189
-3.9777002	projection	-0.15570207
-4.087018	ambitious	-0.15019345
-3.6093764	targets	-0.21430905
-4.233459	continuous	-0.11853298
-3.701208	co2	-0.2580941
-4.3265476	emission	-0.19635262
-3.8904395	intensity	-0.1592443
-4.3265476	simplicity	-0.11853298
-4.4631143	transpire	-0.11853298
-4.3265476	yugo	-0.11853298
-4.4631143	anyhow	-0.11853298
-4.3265476	headline	-0.11853298
-4.4631143	christmas	-0.11853298
-4.087018	automated	-0.11853298
-4.3265476	lab	-0.11853298
-4.4631143	located	-0.11853298
-4.4631143	jena	-0.11853298
-4.4631143	germany	-0.11853298
-4.233459	ceteris	-0.11853298
-4.233459	stick	-0.11853298
-3.8904395	bps	-0.14610738
-4.087018	lps	-0.14295563
-4.233459	projecting	-0.11853298
-3.701208	shift	-0.11853294
-4.4631143	halfway	-0.11853298
-3.1755567	under	-0.33672753
-3.701208	control	-0.17453687
-3.469126	throughout	-0.45657066
-4.3265476	rainer	-0.11853298
-4.4631143	lehmann	-0.11853298
-4.3265476	minute	-0.19635262
-3.9777002	reduce	-0.17555189
-3.5336142	emissions	-0.18980013
-3.701208	anticipate	-0.15019345
-4.3265476	normality	-0.11853298
-4.087018	anticipating	-0.11853298
-4.4631143	midterms	-0.11853298
-4.233459	fundamental	-0.15570207
-3.8904395	role	-0.16069508
-3.259354	additional	-0.1674673
-4.087018	drugs	-0.11853298
-3.4129872	mainly	-0.1779445
-3.8904395	inventory	-0.11853298
-3.7556086	channel	-0.13672
-3.259354	ratio	-0.23647156
-4.087018	year's	-0.11853298
-4.3265476	receivable	-0.11853298
-4.3265476	goodwill	-0.11853298
-3.0337777	inaudible	-0.189731
-4.4631143	varies	-0.11853298
-3.9777002	instruments	-0.16353351
-3.9777002	plastic	-0.11853298
-3.6528697	depending	-0.65324825
-4.233459	components	-0.11853298
-4.4631143	purchasing	-0.11853298
-4.4631143	touching	-0.11853298
-4.3265476	upon	-0.11853298
-4.233459	processes	-0.11853298
-3.5336142	partially	-0.13302119
-4.3265476	bio8	-0.11853298
-4.3265476	leaving	-0.11853298
-4.3265476	greenhouse	-0.24120474
-3.259354	gas	-0.2387306
-3.8178124	omicron	-0.14295563
-4.3265476	vaccination	-0.11853298
-4.4631143	implodes	-0.11853298
-4.233459	projected	-0.11853298
-4.4631143	scientifically	-0.11853298
-4.4631143	aga	-0.11853298
-3.8904395	depends	-0.23271081
-4.233459	materialize	-0.11853298
-4.233459	normalize	-0.11853298
-3.701208	stock	-0.19635262
-4.3265476	instance	-0.11853298
-4.3265476	attributed	-0.11853298
-4.3265476	lowering	-0.11853298
-4.4631143	age	-0.11853298
-4.4631143	eligibility	-0.11853298
-4.4631143	boosters	-0.11853298
-4.233459	purchase	-0.11853298
-4.087018	agreement	-0.16353351
-4.4631143	settle	-0.11853298
-4.4631143	danaher	-0.11853298
-4.233459	ebdta	-0.11853298
-3.5698454	expectation	-0.20612524
-4.4631143	sums	-0.11853298
-4.3265476	attribute	-0.11853298
-4.3265476	mergers	-0.24120474
-4.4631143	amounts	-0.11853298
-3.5001743	included	-0.25642785
-3.9777002	dilution	-0.11853298
-4.4631143	apps	-0.11853298
-4.4631143	fade	-0.11853298
-4.4631143	steep	-0.11853298
-4.4631143	dropdown	-0.11853298
-4.3265476	sharp	-0.11853298
-4.4631143	cliff	-0.11853298
-4.4631143	multiuse	-0.11853298
-4.3265476	domain	-0.11853298
-3.7556086	hit	-0.2378032
-4.4631143	hardest	-0.11853298
-4.4631143	shutdowns	-0.11853298
-3.5336142	underlying	-0.19416028
-4.4631143	yard	-0.11853298
-4.087018	assumptions	-0.11853298
-4.3265476	opposite	-0.11853298
-4.4631143	deduct	-0.11853298
-4.3265476	emphasize	-0.11853298
-3.9777002	intact	-0.11853298
-3.8178124	fundamentals	-0.16883402
-3.9777002	korea	-0.11853298
-3.9777002	plays	-0.22429007
-4.4631143	hub	-0.11853298
-4.4631143	hubs	-0.11853298
-4.233459	consumables	-0.17555189
-4.233459	instrument	-0.11853298
-4.4631143	bioprocessing	-0.11853298
-4.3265476	initiative	-0.11853298
-3.7556086	recent	-0.11853298
-3.9777002	pass	-0.21360183
-4.4631143	hirings	-0.11853298
-4.4631143	functions	-0.11853298
-4.233459	lockdowns	-0.19635262
-4.087018	n	-0.16353351
-4.233459	drug	-0.11853298
-4.4631143	approvals	-0.11853298
-4.4631143	pacific	-0.11853298
-4.233459	prefer	-0.11853298
-3.8904395	bill	-0.11853298
-4.3265476	patrick	-0.11853298
-4.4631143	wood	-0.11853298
-3.7556086	anticipated	-0.14295563
-4.233459	guiding	-0.11853298
-4.4631143	solvet	-0.11853298
-4.4631143	vice	-0.11853298
-4.4631143	versa	-0.11853298
-4.4631143	indepthness	-0.11853298
-4.3265476	divided	-0.11853298
-4.4631143	ebtda	-0.11853298
-4.4631143	midpoint	-0.11853298
-4.4631143	removing	-0.11853298
-4.3265476	cargo	-0.11853298
-4.4631143	media	-0.11853298
-4.3265476	essential	-0.11853298
-4.233459	ingredients	-0.11853298
-4.4631143	assessment	-0.11853298
-4.3265476	whatsoever	-0.11853298
-4.4631143	bodies	-0.11853298
-3.9777002	seems	-0.18434481
-4.3265476	choose	-0.11853298
-4.3265476	remove	-0.11853298
-4.233459	mna	-0.11853298
-4.4631143	lowers	-0.11853298
-4.087018	helpful	-0.3175028
-4.4631143	spotlight	-0.11853298
-3.8904395	asking	-0.15019345
-3.9777002	correct	-0.35221827
-4.233459	tricky	-0.11853298
-4.3265476	positioned	-0.11853298
-4.4631143	steeper	-0.11853298
-4.087018	normalizing	-0.11853298
-4.3265476	patterns	-0.11853298
-3.6093764	systems	-0.17854473
-4.4631143	ordered	-0.11853298
-4.4631143	round	-0.11853298
-4.087018	behavior	-0.25530827
-4.4631143	liberating	-0.11853298
-3.8904395	wanna	-0.17555189
-4.4631143	sticks	-0.11853298
-4.3265476	comprised	-0.11853298
-4.3265476	evaluation	-0.11853298
-4.4631143	conjunction	-0.11853298
-4.4631143	liability	-0.11853298
-4.4631143	separations	-0.11853298
-4.087018	answers	-0.17555189
-3.6093764	vaccine	-0.15951784
-4.4631143	lts	-0.11853298
-4.3265476	fantastic	-0.11853298
-3.9777002	guide	-0.16353351
-3.8178124	changed	-0.15019345
-4.3265476	laid	-0.11853298
-4.3265476	3q	-0.11853298
-4.4631143	topline	-0.11853298
-4.4631143	leday	-0.11853298
-4.4631143	spectron	-0.11853298
-4.3265476	modalities	-0.11853298
-4.3265476	therapeutic	-0.11853298
-4.4631143	emergence	-0.11853298
-4.233459	therapy	-0.11853298
-4.087018	mrna	-0.17555189
-3.5336142	benefit	-0.25901917
-4.4631143	antibodies	-0.11853298
-4.233459	orders	-0.14610738
-4.4631143	governments	-0.11853298
-3.8904395	technologies	-0.2047774
-4.3265476	represents	-0.11853298
-4.3265476	stocking	-0.11853298
-4.4631143	ec	-0.11853298
-3.6093764	et	-0.8767737
-4.4631143	cetera	-0.11853298
-4.3265476	sum	-0.11853298
-3.7556086	somewhere	-0.16883402
-3.8178124	calculation	-0.19135772
-4.087018	feeling	-0.16353351
-4.4631143	composition	-0.11853298
-4.4631143	petina	-0.11853298
-4.3265476	carcota	-0.11853298
-4.3265476	ubs	-0.24120474
-4.4631143	technological	-0.11853298
-4.233459	compares	-0.11853298
-4.3265476	sharing	-0.11853298
-4.233459	guys	-0.11853298
-3.8904395	joachim	-0.2047774
-3.9777002	today's	-0.16353351
-4.233459	erina	-0.11853298
-4.3265476	elaborating	-0.24120474
-4.4631143	ssb	-0.11853298
-4.4631143	abd	-0.11853298
-4.3265476	bullet	-0.11853298
-4.4631143	katrina	-0.11853298
-4.3265476	anyone	-0.11853298
-4.4631143	wishes	-0.11853298
-4.4631143	touchstone	-0.11853298
-4.4631143	beforehand	-0.11853298
-4.4631143	ortisis	-0.11853298
-4.4631143	manny	-0.11853298
-4.4631143	cots	-0.11853298
-4.3265476	bell	-0.11853298
-4.4631143	barker	-0.11853298
-4.233459	initial	-0.11853298
-4.3265476	crosstalk	-0.11853298
-4.3265476	substitution	-0.11853298
-3.701208	oil	-0.16820025
-4.3265476	plastics	-0.11853298
-4.3265476	indebtedness	-0.24120474
-4.3265476	compound	-0.11853298
-3.8904395	assumption	-0.14610738
-4.3265476	prediction	-0.11853298
-4.4631143	paul	-0.11853298
-4.4631143	knight	-0.11853298
-4.4631143	keybanc	-0.11853298
-3.8904395	looked	-0.25055602
-4.3265476	poor	-0.11853298
-3.9777002	realized	-0.11853298
-4.3265476	aspect	-0.11853298
-4.4631143	transparent	-0.11853298
-4.4631143	bits	-0.11853298
-4.4631143	interact	-0.11853298
-4.4631143	perspectives	-0.11853298
-4.4631143	behaving	-0.11853298
-4.4631143	cautiously	-0.11853298
-4.3265476	stress	-0.17555189
-4.3265476	isn't	-0.11853298
-4.4631143	narrow	-0.11853298
-4.4631143	strained	-0.11853298
-3.132082	projects	-0.2837128
-4.087018	consequently	-0.11853298
-3.6093764	executing	-0.3382334
-4.3265476	independent	-0.11853298
-4.3265476	import	-0.11853298
-4.4631143	medicines	-0.11853298
-4.233459	stated	-0.11853298
-4.3265476	historical	-0.11853298
-4.233459	estimates	-0.11853298
-4.087018	would've	-0.15570207
-4.4631143	ramping	-0.11853298
-4.3265476	wider	-0.11853298
-4.4631143	jump	-0.11853298
-4.4631143	achievement	-0.11853298
-4.233459	defined	-0.11853298
-4.4631143	translated	-0.11853298
-4.4631143	approximate	-0.11853298
-4.4631143	richard	-0.11853298
-4.4631143	foser	-0.11853298
-4.4631143	acquis	-0.11853298
-4.3265476	agreed	-0.19635262
-4.233459	adding	-0.11853298
-3.7556086	bio	-0.19285016
-4.4631143	analytics	-0.11853298
-4.233459	learn	-0.11853298
-4.087018	leave	-0.17555189
-4.4631143	fermentation	-0.11853298
-3.6528697	approximately	-0.1592443
-4.3265476	requests	-0.11853298
-4.4631143	ron	-0.11853298
-3.9777002	translate	-0.16353351
-4.4631143	perform	-0.11853298
-4.3265476	processing	-0.11853298
-4.3265476	stainless	-0.24120474
-4.3265476	steel	-0.11853298
-4.4631143	rough	-0.11853298
-4.4631143	rega	-0.11853298
-4.3265476	mechanics	-0.11853298
-4.4631143	pnl	-0.11853298
-4.4631143	stressed	-0.11853298
-4.3265476	honest	-0.19635262
-4.087018	placing	-0.11853298
-4.087018	periods	-0.11853298
-4.4631143	grasp	-0.11853298
-4.3265476	beside	-0.11853298
-4.4631143	personnel	-0.11853298
-4.4631143	approx	-0.11853298
-3.8178124	utilization	-0.18434481
-3.6093764	consumers	-0.16890317
-4.087018	kicking	-0.43744105
-4.3265476	guided	-0.11853298
-3.8178124	gap	-0.14045063
-4.4631143	fire	-0.11853298
-4.4631143	roadmap	-0.11853298
-4.233459	expansions	-0.16353351
-4.4631143	lifting	-0.11853298
-4.3265476	volatilities	-0.11853298
-4.3265476	tons	-0.11853298
-3.8904395	understood	-0.18155827
-4.087018	proportion	-0.22429007
-4.3265476	relation	-0.11853298
-4.087018	reference	-0.11853298
-4.4631143	cellzenex	-0.11853298
-4.4631143	merger	-0.11853298
-3.701208	excluding	-0.14295563
-4.233459	waste	-0.11853298
-4.4631143	resource	-0.11853298
-4.4631143	minimize	-0.11853298
-4.087018	compensation	-0.11853298
-4.4631143	educated	-0.11853298
-4.087018	manner	-0.43744105
-3.701208	quarterly	-0.17954691
-4.4631143	everyday	-0.11853298
-4.4631143	lowered	-0.11853298
-4.4631143	hello	-0.11853298
-4.3265476	suggest	-0.11853298
-4.3265476	biontech	-0.11853298
-4.233459	pfizer	-0.11853298
-4.4631143	lonza	-0.11853298
-4.233459	tha	-0.17555189
-4.4631143	that'd	-0.11853298
-3.6528697	definitely	-0.20959294
-4.4631143	pickup	-0.11853298
-4.4631143	calculating	-0.11853298
-4.4631143	talks	-0.11853298
-4.4631143	adaptation	-0.11853298
-4.4631143	variant	-0.11853298
-4.4631143	moderna	-0.11853298
-4.233459	calls	-0.11853298
-4.3265476	spread	-0.11853298
-4.4631143	cumulated	-0.11853298
-4.4631143	precisely	-0.11853298
-3.8904395	cycle	-0.11853298
-4.4631143	clustering	-0.11853298
-4.087018	feedback	-0.11853298
-4.087018	keeping	-0.11853298
-4.4631143	halfways	-0.11853298
-4.3265476	newly	-0.11853298
-4.4631143	approved	-0.11853298
-4.087018	clinical	-0.11853298
-4.3265476	exclude	-0.11853298
-4.3265476	pipelines	-0.11853298
-4.4631143	proportional	-0.11853298
-3.9777002	categories	-0.18434481
-4.4631143	transi	-0.11853298
-4.4631143	transinient	-0.11853298
-4.4631143	transient	-0.11853298
-4.087018	necessary	-0.11853298
-4.4631143	broadened	-0.11853298
-4.087018	playing	-0.11853298
-4.3265476	negatively	-0.11853298
-4.087018	intention	-0.11853298
-4.4631143	acceleratingly	-0.11853298
-4.4631143	peaking	-0.11853298
-4.4631143	rage	-0.11853298
-4.4631143	gram	-0.11853298
-4.4631143	phrased	-0.11853298
-4.4631143	dig	-0.11853298
-3.8904395	item	-0.2047774
-4.4631143	finish	-0.11853298
-4.4631143	soci	-0.11853298
-4.3265476	distribute	-0.11853298
-4.3265476	calculate	-0.24120474
-4.4631143	caker	-0.11853298
-4.3265476	laboratories	-0.11853298
-4.3265476	huh	-0.11853298
-4.3265476	south	-0.11853298
-4.233459	requires	-0.11853298
-3.8904395	diverse	-0.11853298
-3.318685	energy	-0.2805691
-4.3265476	cleaning	-0.11853298
-4.4631143	sterilization	-0.11853298
-4.087018	water	-0.11853298
-4.4631143	environmental	-0.11853298
-4.233459	manufacture	-0.11853298
-4.087018	influenced	-0.11853298
-4.4631143	dominant	-0.11853298
-3.9777002	manufacturer	-0.16353351
-4.4631143	western	-0.11853298
-4.3265476	confirms	-0.11853298
-3.8178124	delivery	-0.18155827
-3.8904395	launches	-0.14295563
-4.4631143	biosimilars	-0.11853298
-4.233459	besides	-0.19635262
-4.4631143	ecological	-0.11853298
-4.4631143	stain	-0.11853298
-4.4631143	strange	-0.11853298
-4.4631143	contra	-0.11853298
-4.3265476	counter	-0.11853298
-4.4631143	intuitive	-0.11853298
-4.3265476	dilute	-0.11853298
-4.233459	targeting	-0.11853298
-4.4631143	reside	-0.11853298
-4.087018	represent	-0.11853298
-4.3265476	growths	-0.11853298
-4.4631143	impossible	-0.11853298
-4.233459	performing	-0.11853298
-4.3265476	minor	-0.11853298
-4.4631143	inve	-0.11853298
-4.087018	validated	-0.11853298
-4.4631143	strengthens	-0.11853298
-4.4631143	intending	-0.11853298
-4.233459	midterm	-0.11853298
-4.3265476	societe	-0.24120474
-4.4631143	generale	-0.11853298
-4.4631143	differentiating	-0.11853298
-4.3265476	analysis	-0.11853298
-4.4631143	cells	-0.11853298
-4.4631143	observation	-0.11853298
-4.4631143	luckily	-0.11853298
-4.3265476	oriented	-0.11853298
-3.8904395	element	-0.15570207
-4.3265476	positively	-0.11853298
-4.233459	wish	-0.11853298
-4.3265476	queue	-0.11853298
-4.3265476	dropped	-0.11853298
-4.087018	self	-0.17555189
-4.4631143	amplifying	-0.11853298
-4.3265476	consumable	-0.11853298
-4.4631143	describe	-0.11853298
-4.3265476	label	-0.11853298
-4.233459	partly	-0.11853298
-4.4631143	ca	-0.11853298
-4.4631143	filter	-0.11853298
-4.4631143	vac	-0.11853298
-4.4631143	selections	-0.11853298
-4.4631143	sorta	-0.11853298
-4.3265476	conversations	-0.24120474
-4.3265476	stayed	-0.11853298
-4.4631143	c	-0.11853298
-4.4631143	charts	-0.11853298
-3.8904395	ambition	-0.16883402
-4.3265476	listening	-0.11853298
-4.4631143	congratulation	-0.11853298
-4.4631143	complementary	-0.11853298
-4.087018	accelerate	-0.11853298
-4.4631143	purchased	-0.11853298
-3.7556086	information	-0.14045063
-4.4631143	feedbacks	-0.11853298
-4.4631143	yours	-0.11853298
-4.087018	initially	-0.11853298
-4.233459	facilities	-0.19635262
-4.4631143	yauco	-0.11853298
-4.087018	evolving	-0.11853298
-4.4631143	holds	-0.11853298
-4.233459	incorporated	-0.19635262
-4.4631143	paul's	-0.11853298
-4.233459	seem	-0.19635262
-4.4631143	stronghold	-0.11853298
-4.4631143	intensively	-0.11853298
-4.233459	ends	-0.11853298
-4.4631143	shooting	-0.11853298
-4.3265476	earn	-0.11853298
-4.4631143	separation	-0.11853298
-4.3265476	folks	-0.11853298
-4.087018	confirming	-0.17555189
-4.4631143	insisting	-0.11853298
-4.4631143	biologics	-0.11853298
-4.4631143	named	-0.11853298
-4.4631143	stacksetrion	-0.11853298
-4.4631143	updates	-0.11853298
-4.4631143	sync	-0.11853298
-4.233459	accumulated	-0.11853298
-4.4631143	spa	-0.11853298
-4.233459	normalization	-0.11853298
-4.4631143	doughnut	-0.11853298
-4.087018	movement	-0.17555189
-4.3265476	lean	-0.11853298
-4.4631143	doses	-0.11853298
-4.233459	applied	-0.11853298
-4.087018	flu	-0.17555189
-3.701208	asked	-0.21430905
-4.4631143	triggers	-0.11853298
-4.4631143	emphasizes	-0.11853298
-4.4631143	amplifies	-0.11853298
-4.4631143	averse	-0.11853298
-4.4631143	lengthy	-0.11853298
-4.087018	perceived	-0.17555189
-3.9777002	soft	-0.11853298
-4.4631143	variety	-0.11853298
-4.3265476	yo	-0.11853298
-4.4631143	shorter	-0.11853298
-4.4631143	feature	-0.11853298
-4.087018	sir	-0.25530827
-4.087018	missing	-0.21374163
-3.701208	piece	-0.14295563
-4.3265476	buffer	-0.11853298
-4.233459	regard	-0.19635262
-4.087018	oh	-0.13529362
-4.4631143	strike	-0.11853298
-4.3265476	advise	-0.24120474
-4.4631143	emphasis	-0.11853298
-3.8904395	presented	-0.15570207
-4.4631143	bioprocess	-0.11853298
-4.4631143	ratio's	-0.11853298
-4.087018	turnover	-0.11853298
-4.233459	error	-0.19635262
-4.4631143	coronavirus	-0.11853298
-4.4631143	nega	-0.11853298
-4.233459	effectiveness	-0.11853298
-4.3265476	deviation	-0.11853298
-4.4631143	kicker	-0.11853298
-4.4631143	hiya	-0.11853298
-4.233459	direct	-0.11853298
-4.087018	substantially	-0.17555189
-4.3265476	upgraded	-0.11853298
-4.4631143	biopharmaceutical	-0.11853298
-4.3265476	healthcare	-0.11853298
-4.4631143	biopharma	-0.11853298
-4.233459	science	-0.11853298
-3.701208	suppliers	-0.14045063
-3.9777002	possibility	-0.2702391
-4.4631143	basing	-0.11853298
-4.4631143	ssp	-0.11853298
-4.4631143	globe	-0.11853298
-4.4631143	ratios	-0.11853298
-3.8178124	estimate	-0.11853294
-3.9777002	exposed	-0.21374163
-4.4631143	manufacturability	-0.11853298
-4.4631143	cartridge	-0.11853298
-4.233459	foresee	-0.11853298
-4.233459	bringing	-0.11853298
-4.3265476	sitting	-0.11853298
-4.4631143	chicago	-0.11853298
-3.9777002	manual	-0.11853298
-4.3265476	mandate	-0.11853298
-3.9777002	delays	-0.21374163
-4.4631143	token	-0.11853298
-4.3265476	guaranteeing	-0.11853298
-4.233459	pill	-0.11853298
-3.6093764	affect	-0.15570207
-3.4401503	testing	-0.26434645
-3.9777002	synergies	-0.16883402
-4.4631143	instagation	-0.11853298
-4.3265476	touch	-0.11853298
-4.4631143	modeled	-0.11853298
-4.233459	menu	-0.11853298
-4.3265476	u	-0.24120474
-3.8904395	care	-0.1882019
-4.087018	rollout	-0.11853298
-4.4631143	italy	-0.11853298
-4.233459	respiratory	-0.17555189
-3.9777002	panel	-0.11853298
-4.3265476	ballpark	-0.11853298
-3.2412512	luminex	-0.19025384
-4.4631143	whose	-0.11853298
-4.087018	july	-0.15570207
-4.4631143	14th	-0.11853298
-4.4631143	prototyping	-0.11853298
-3.5001743	diasorin	-0.1655136
-4.233459	ivd	-0.11853298
-4.087018	supplier	-0.11853298
-4.233459	institutions	-0.11853298
-3.701208	access	-0.3876524
-4.233459	excited	-0.25530827
-3.8904395	operator	-0.14295563
-3.9777002	q	-0.22141269
-4.4631143	carry	-0.11853298
-4.4631143	classical	-0.11853298
-4.4631143	rooted	-0.11853298
-4.087018	virgin	-0.28256476
-3.9777002	plex	-0.15570207
-3.9777002	panels	-0.15019345
-3.9777002	stand	-0.11853298
-3.9777002	visa	-0.53435105
-4.4631143	shortage	-0.11853298
-3.7556086	hospitals	-0.30050218
-4.4631143	nextag	-0.11853298
-3.701208	eh	-0.16820025
-4.4631143	heh	-0.11853298
-4.087018	clarify	-0.11853298
-4.3265476	multiplexing	-0.11853298
